{"learner":{"attributes":{"best_iteration":"223","best_score":"0.3307969806654419"},"feature_names":[],"feature_types":[],"gradient_booster":{"model":{"gbtree_model_param":{"num_parallel_tree":"1","num_trees":"274"},"iteration_indptr":[0,1,2,3,4,5,6,7,8,9,10,11,12,13,14,15,16,17,18,19,20,21,22,23,24,25,26,27,28,29,30,31,32,33,34,35,36,37,38,39,40,41,42,43,44,45,46,47,48,49,50,51,52,53,54,55,56,57,58,59,60,61,62,63,64,65,66,67,68,69,70,71,72,73,74,75,76,77,78,79,80,81,82,83,84,85,86,87,88,89,90,91,92,93,94,95,96,97,98,99,100,101,102,103,104,105,106,107,108,109,110,111,112,113,114,115,116,117,118,119,120,121,122,123,124,125,126,127,128,129,130,131,132,133,134,135,136,137,138,139,140,141,142,143,144,145,146,147,148,149,150,151,152,153,154,155,156,157,158,159,160,161,162,163,164,165,166,167,168,169,170,171,172,173,174,175,176,177,178,179,180,181,182,183,184,185,186,187,188,189,190,191,192,193,194,195,196,197,198,199,200,201,202,203,204,205,206,207,208,209,210,211,212,213,214,215,216,217,218,219,220,221,222,223,224,225,226,227,228,229,230,231,232,233,234,235,236,237,238,239,240,241,242,243,244,245,246,247,248,249,250,251,252,253,254,255,256,257,258,259,260,261,262,263,264,265,266,267,268,269,270,271,272,273,274],"tree_info":[0,0,0,0,0,0,0,0,0,0,0,0,0,0,0,0,0,0,0,0,0,0,0,0,0,0,0,0,0,0,0,0,0,0,0,0,0,0,0,0,0,0,0,0,0,0,0,0,0,0,0,0,0,0,0,0,0,0,0,0,0,0,0,0,0,0,0,0,0,0,0,0,0,0,0,0,0,0,0,0,0,0,0,0,0,0,0,0,0,0,0,0,0,0,0,0,0,0,0,0,0,0,0,0,0,0,0,0,0,0,0,0,0,0,0,0,0,0,0,0,0,0,0,0,0,0,0,0,0,0,0,0,0,0,0,0,0,0,0,0,0,0,0,0,0,0,0,0,0,0,0,0,0,0,0,0,0,0,0,0,0,0,0,0,0,0,0,0,0,0,0,0,0,0,0,0,0,0,0,0,0,0,0,0,0,0,0,0,0,0,0,0,0,0,0,0,0,0,0,0,0,0,0,0,0,0,0,0,0,0,0,0,0,0,0,0,0,0,0,0,0,0,0,0,0,0,0,0,0,0,0,0,0,0,0,0,0,0,0,0,0,0,0,0,0,0,0,0,0,0,0,0,0,0,0,0,0,0,0,0,0,0,0,0,0,0,0,0,0,0,0,0,0,0],"trees":[{"base_weights":[7.053996E-11,-1.4612998E-1,3.6893198E0,-2.4552722E-1,8.4702104E-1,2.9884214E0,1.1950274E1,-2.6400736E-1,1.0488965E-1,4.823369E-1,1.2116605E0,2.3377383E0,3.8989394E0,1.1110209E1,1.5752258E1,-2.6806426E-1,-1.855497E-1,1.7094348E-2,2.3610961E-1,4.1572347E-1,5.5855435E-1,1.1320177E0,1.5338818E0,1.4122733E-1,2.5202725E0,3.5822916E0,3.8457116E-1,6.270338E-1,1.1756277E1,8.63851E-1,1.8312681E1,-2.713592E-1,-2.5102004E-1,-2.0670578E-1,-1.3224456E-1,-3.2490745E-2,3.1167146E-2,1.1845698E-2,2.5133398E-1,3.730104E-1,4.4064027E-1,5.345044E-1,5.2424785E-2,9.9891526E-1,1.2267892E0,1.0437862E-1,1.20161965E-1,2.4277554E0,2.1570158E-1,2.4496935E-1,2.9187766E-1,1.5915679E1,1.0806834E1,3.9779598E-1,1.4095672E0,-2.049999E-2,-1.9957092E-2,-1.9024443E-2,-1.7767757E-2,-1.6233994E-2,-1.4388528E-2,-1.0784853E-2,-7.2872504E-3,-3.6236371E-3,-1.2428728E-3,1.7962557E-3,5.5750124E-3,1.7367419E-2,1.9800177E-2,2.5150841E-2,2.921983E-2,3.1590372E-2,3.4418304E-2,3.851265E-2,4.15868E-2,6.850225E-2,7.910719E-2,8.660566E-2,9.405758E-2,1.6944349E-1,1.8594223E-1,2.3557745E-1,1.2317033E0,7.535383E-1,1.0281991E0],"categories":[],"categories_nodes":[],"categories_segments":[],"categories_sizes":[],"default_left":[0,0,0,0,0,0,0,0,0,0,0,0,0,0,0,0,0,0,0,0,0,0,0,0,0,0,0,0,0,0,0,0,0,0,0,0,0,0,0,0,0,0,0,0,0,0,0,0,0,0,0,0,0,0,0,0,0,0,0,0,0,0,0,0,0,0,0,0,0,0,0,0,0,0,0,0,0,0,0,0,0,0,0,0,0],"id":0,"left_children":[1,3,5,7,9,11,13,15,17,19,21,23,25,27,29,31,33,35,37,39,41,43,45,-1,47,49,-1,-1,51,-1,53,55,57,59,61,63,65,-1,67,69,71,73,-1,75,77,-1,-1,79,-1,-1,-1,81,83,-1,-1,-1,-1,-1,-1,-1,-1,-1,-1,-1,-1,-1,-1,-1,-1,-1,-1,-1,-1,-1,-1,-1,-1,-1,-1,-1,-1,-1,-1,-1,-1],"loss_changes":[3.2446412E4,5.715004E3,1.3240967E4,3.4081445E2,6.9981177E2,1.2439336E3,3.9669922E2,1.5861084E1,3.037551E1,1.3145996E1,6.5833496E1,9.78418E1,3.2400098E2,1.681914E2,1.1431787E2,2.6013184E0,2.7480087E0,1.1042361E0,1.2181778E0,1.3362732E0,3.7673645E0,2.5453613E1,2.8081055E0,0E0,2.1947754E1,5.6030273E1,0E0,0E0,2.9794922E2,0E0,6.810547E0,3.413086E-1,2.2729492E-1,2.133789E-1,2.705555E-1,8.736807E-2,3.8203037E-1,0E0,1.5999985E-1,1.9797516E-1,1.2097168E-1,1.564331E-1,0E0,3.2650146E0,9.7424316E-1,0E0,0E0,5.053711E-1,0E0,0E0,0E0,7.7958496E1,8.274902E1,0E0,0E0,0E0,0E0,0E0,0E0,0E0,0E0,0E0,0E0,0E0,0E0,0E0,0E0,0E0,0E0,0E0,0E0,0E0,0E0,0E0,0E0,0E0,0E0,0E0,0E0,0E0,0E0,0E0,0E0,0E0,0E0],"parents":[2147483647,0,0,1,1,2,2,3,3,4,4,5,5,6,6,7,7,8,8,9,9,10,10,11,11,12,12,13,13,14,14,15,15,16,16,17,17,18,18,19,19,20,20,21,21,22,22,24,24,25,25,28,28,30,30,31,31,32,32,33,33,34,34,35,35,36,36,38,38,39,39,40,40,41,41,43,43,44,44,47,47,51,51,52,52],"right_children":[2,4,6,8,10,12,14,16,18,20,22,24,26,28,30,32,34,36,38,40,42,44,46,-1,48,50,-1,-1,52,-1,54,56,58,60,62,64,66,-1,68,70,72,74,-1,76,78,-1,-1,80,-1,-1,-1,82,84,-1,-1,-1,-1,-1,-1,-1,-1,-1,-1,-1,-1,-1,-1,-1,-1,-1,-1,-1,-1,-1,-1,-1,-1,-1,-1,-1,-1,-1,-1,-1,-1],"split_conditions":[1.1756333E3,6.282255E2,2.1191328E3,3.6998648E2,8.5838745E2,1.5071431E3,2.6826E3,1.795097E2,5.134299E2,7.247038E2,1.056373E3,1.2705616E3,1.8123983E3,1.2454E4,1E-1,9.3772125E1,2.7580518E2,4.315306E2,5.688384E2,6.8400916E2,7.844701E2,9.773255E2,1.0846655E3,1.4122733E-1,1.4186962E3,1.6092565E3,3.8457116E-1,6.270338E-1,6.666667E-1,8.63851E-1,6.27E1,5.540848E1,1.4147827E2,2.192111E2,3.2970905E2,4.0880783E2,4.7151712E2,1.1845698E-2,5.988856E2,6.6165265E2,6.9945044E2,7.436195E2,5.2424785E-2,9.208324E2,1.0043378E3,1.0437862E-1,1.20161965E-1,1.352408E3,2.1570158E-1,2.4496935E-1,2.9187766E-1,4.975E3,1.354E2,3.9779598E-1,1.4095672E0,-2.049999E-2,-1.9957092E-2,-1.9024443E-2,-1.7767757E-2,-1.6233994E-2,-1.4388528E-2,-1.0784853E-2,-7.2872504E-3,-3.6236371E-3,-1.2428728E-3,1.7962557E-3,5.5750124E-3,1.7367419E-2,1.9800177E-2,2.5150841E-2,2.921983E-2,3.1590372E-2,3.4418304E-2,3.851265E-2,4.15868E-2,6.850225E-2,7.910719E-2,8.660566E-2,9.405758E-2,1.6944349E-1,1.8594223E-1,2.3557745E-1,1.2317033E0,7.535383E-1,1.0281991E0],"split_indices":[34,34,34,34,34,34,33,34,34,34,34,34,34,30,7,34,34,34,34,34,34,34,34,0,34,34,0,0,16,0,2,34,34,34,34,34,34,0,34,34,34,34,0,34,34,0,0,34,0,0,0,32,2,0,0,0,0,0,0,0,0,0,0,0,0,0,0,0,0,0,0,0,0,0,0,0,0,0,0,0,0,0,0,0,0],"split_type":[0,0,0,0,0,0,0,0,0,0,0,0,0,0,0,0,0,0,0,0,0,0,0,0,0,0,0,0,0,0,0,0,0,0,0,0,0,0,0,0,0,0,0,0,0,0,0,0,0,0,0,0,0,0,0,0,0,0,0,0,0,0,0,0,0,0,0,0,0,0,0,0,0,0,0,0,0,0,0,0,0,0,0,0,0],"sum_hessian":[6.0182E4,5.789E4,2.292E3,5.2624E4,5.266E3,2.114E3,1.78E2,4.9988E4,2.636E3,2.634E3,2.632E3,1.235E3,8.79E2,1.49E2,2.9E1,4.7528E4,2.46E3,1.58E3,1.056E3,1.409E3,1.225E3,2.114E3,5.18E2,3.57E2,8.78E2,7.02E2,1.77E2,3.1E1,1.18E2,1.3E1,1.6E1,3.9816E4,7.712E3,1.759E3,7.01E2,3.49E2,1.231E3,1.74E2,8.82E2,5.25E2,8.84E2,1.05E3,1.75E2,8.84E2,1.23E3,1.75E2,3.43E2,7.03E2,1.75E2,3.53E2,3.49E2,1.9E1,9.9E1,1E0,1.5E1,2.8921E4,1.0895E4,6.483E3,1.229E3,1.054E3,7.05E2,5.25E2,1.76E2,1.74E2,1.75E2,1.056E3,1.75E2,3.52E2,5.3E2,1.67E2,3.58E2,4.4E2,4.44E2,5.25E2,5.25E2,3.56E2,5.28E2,3.5E2,8.8E2,1.75E2,5.28E2,1E0,1.8E1,8.2E1,1.7E1],"tree_param":{"num_deleted":"0","num_feature":"38","num_nodes":"85","size_leaf_vector":"1"}},{"base_weights":[1.480916E-4,-1.2949008E-1,3.5664566E0,-2.271141E-1,8.133606E-1,2.8678613E0,1.1090581E1,-2.4420933E-1,9.704247E-2,4.462576E-1,1.156701E0,2.4439936E0,3.9940736E0,1.0302785E1,1.465988E1,-2.4781694E-1,-1.6875017E-1,1.5813855E-2,2.1844776E-1,3.8462958E-1,5.1677084E-1,1.0472716E0,1.4852118E0,2.1621E0,2.9077752E0,2.7004936E-1,3.558904E-1,5.814759E-1,1.0901859E1,1.0715866E1,1.7045546E1,-2.5084487E-1,-2.3071116E-1,-1.8921939E-1,-1.2235196E-1,-3.0067844E-2,2.8835593E-2,1.09623475E-2,2.3252602E-1,3.3131784E-1,4.0178698E-1,4.944928E-1,4.8515264E-2,8.988585E-1,1.1199001E0,1.019791E-1,1.2053822E-1,1.3601261E-1,2.2461786E0,1.9961587E-1,2.2664857E-1,1.4795367E1,1.0014139E1,8.289087E-1,2.3792344E-1,7.349041E-1,1.3891193E0,-1.895346E-2,-1.841313E-2,-1.7517542E-2,-1.6254766E-2,-1.4476092E-2,-1.1863418E-2,-9.977527E-3,-6.743794E-3,-3.3534174E-3,-1.1501871E-3,1.661664E-3,5.159262E-3,1.6068554E-2,1.831796E-2,2.3275757E-2,2.6164385E-2,2.861478E-2,3.1582616E-2,3.5629693E-2,3.8473718E-2,6.337897E-2,7.140634E-2,7.887401E-2,8.701128E-2,1.5680744E-1,1.7202292E-1,2.2674328E-1,1.1441877E0,6.9770384E-1,9.553683E-1],"categories":[],"categories_nodes":[],"categories_segments":[],"categories_sizes":[],"default_left":[0,0,0,0,0,0,0,0,0,0,0,0,0,0,0,0,0,0,0,0,0,0,0,0,0,0,0,0,0,0,0,0,0,0,0,0,0,0,0,0,0,0,0,0,0,0,0,0,0,0,0,0,0,0,0,0,0,0,0,0,0,0,0,0,0,0,0,0,0,0,0,0,0,0,0,0,0,0,0,0,0,0,0,0,0,0,0],"id":1,"left_children":[1,3,5,7,9,11,13,15,17,19,21,23,25,27,29,31,33,35,37,39,41,43,45,47,49,-1,-1,-1,51,53,55,57,59,61,63,65,67,-1,69,71,73,75,-1,77,79,-1,-1,-1,81,-1,-1,83,85,-1,-1,-1,-1,-1,-1,-1,-1,-1,-1,-1,-1,-1,-1,-1,-1,-1,-1,-1,-1,-1,-1,-1,-1,-1,-1,-1,-1,-1,-1,-1,-1,-1,-1],"loss_changes":[2.7824852E4,5.3455063E3,1.1064279E4,2.9164673E2,6.8628296E2,9.129844E2,3.5228906E2,1.3566406E1,2.6001545E1,1.1251892E1,9.964014E1,1.7766016E2,1.3864648E2,1.4460254E2,9.961572E1,2.413086E0,2.1460419E0,9.454503E-1,1.0416336E0,1.156601E0,3.2335205E0,2.1791016E1,8.543823E0,2.1689453E1,6.8325195E0,0E0,0E0,0E0,2.6314258E2,4.5031738E-1,3.5498047E-1,3.4204102E-1,2.3638916E-1,1.5594864E-1,2.3125267E-1,7.48238E-2,3.2729602E-1,0E0,1.367302E-1,2.0133972E-2,2.5483704E-1,1.3391113E-1,0E0,1.2001343E0,2.6695557E0,0E0,0E0,0E0,3.972168E-1,0E0,0E0,6.2291016E1,7.529883E1,0E0,0E0,0E0,0E0,0E0,0E0,0E0,0E0,0E0,0E0,0E0,0E0,0E0,0E0,0E0,0E0,0E0,0E0,0E0,0E0,0E0,0E0,0E0,0E0,0E0,0E0,0E0,0E0,0E0,0E0,0E0,0E0,0E0,0E0],"parents":[2147483647,0,0,1,1,2,2,3,3,4,4,5,5,6,6,7,7,8,8,9,9,10,10,11,11,12,12,13,13,14,14,15,15,16,16,17,17,18,18,19,19,20,20,21,21,22,22,23,23,24,24,28,28,29,29,30,30,31,31,32,32,33,33,34,34,35,35,36,36,38,38,39,39,40,40,41,41,43,43,44,44,48,48,51,51,52,52],"right_children":[2,4,6,8,10,12,14,16,18,20,22,24,26,28,30,32,34,36,38,40,42,44,46,48,50,-1,-1,-1,52,54,56,58,60,62,64,66,68,-1,70,72,74,76,-1,78,80,-1,-1,-1,82,-1,-1,84,86,-1,-1,-1,-1,-1,-1,-1,-1,-1,-1,-1,-1,-1,-1,-1,-1,-1,-1,-1,-1,-1,-1,-1,-1,-1,-1,-1,-1,-1,-1,-1,-1,-1,-1],"split_conditions":[1.2150411E3,6.282255E2,2.1191328E3,3.6998648E2,8.5838745E2,1.6092565E3,2.6826E3,1.857341E2,5.134299E2,7.247038E2,1.056373E3,1.4186962E3,1.8123983E3,1.2454E4,1E-1,9.9034004E1,2.7580518E2,4.315306E2,5.688384E2,6.7574225E2,7.844701E2,9.6382654E2,1.1377512E3,1.2705616E3,1.5071431E3,2.7004936E-1,3.558904E-1,5.814759E-1,6.666667E-1,2.0032018E3,9.665966E-4,5.8907177E1,1.4676456E2,2.439032E2,3.2970905E2,4.0880783E2,4.7151712E2,1.09623475E-2,5.988856E2,6.6165265E2,6.9424207E2,7.436195E2,4.8515264E-2,9.208324E2,1.0043378E3,1.019791E-1,1.2053822E-1,1.3601261E-1,1.352408E3,1.9961587E-1,2.2664857E-1,4.975E3,1.354E2,8.289087E-1,2.3792344E-1,7.349041E-1,1.3891193E0,-1.895346E-2,-1.841313E-2,-1.7517542E-2,-1.6254766E-2,-1.4476092E-2,-1.1863418E-2,-9.977527E-3,-6.743794E-3,-3.3534174E-3,-1.1501871E-3,1.661664E-3,5.159262E-3,1.6068554E-2,1.831796E-2,2.3275757E-2,2.6164385E-2,2.861478E-2,3.1582616E-2,3.5629693E-2,3.8473718E-2,6.337897E-2,7.140634E-2,7.887401E-2,8.701128E-2,1.5680744E-1,1.7202292E-1,2.2674328E-1,1.1441877E0,6.9770384E-1,9.553683E-1],"split_indices":[34,34,34,34,34,34,33,34,34,34,34,34,34,30,7,34,34,34,34,34,34,34,34,34,34,0,0,0,16,3,36,34,34,34,34,34,34,0,34,34,34,34,0,34,34,0,0,0,34,0,0,32,2,0,0,0,0,0,0,0,0,0,0,0,0,0,0,0,0,0,0,0,0,0,0,0,0,0,0,0,0,0,0,0,0,0,0],"split_type":[0,0,0,0,0,0,0,0,0,0,0,0,0,0,0,0,0,0,0,0,0,0,0,0,0,0,0,0,0,0,0,0,0,0,0,0,0,0,0,0,0,0,0,0,0,0,0,0,0,0,0,0,0,0,0,0,0,0,0,0,0,0,0,0,0,0,0,0,0,0,0,0,0,0,0,0,0,0,0,0,0,0,0,0,0,0,0],"sum_hessian":[6.0182E4,5.8072E4,2.11E3,5.2624E4,5.448E3,1.932E3,1.78E2,4.9988E4,2.636E3,2.634E3,2.814E3,1.406E3,5.26E2,1.49E2,2.9E1,4.7705E4,2.283E3,1.58E3,1.056E3,1.409E3,1.225E3,2.114E3,7E2,8.78E2,5.28E2,3.49E2,1.77E2,3.1E1,1.18E2,1.3E1,1.6E1,4.0519E4,7.186E3,1.582E3,7.01E2,3.49E2,1.231E3,1.74E2,8.82E2,3.48E2,1.061E3,1.05E3,1.75E2,6.99E2,1.415E3,3.51E2,3.49E2,1.75E2,7.03E2,1.75E2,3.53E2,1.9E1,9.9E1,1.2E1,1E0,4E0,1.2E1,2.9979E4,1.054E4,5.954E3,1.232E3,1.405E3,1.77E2,5.25E2,1.76E2,1.74E2,1.75E2,1.056E3,1.75E2,3.52E2,5.3E2,1.67E2,1.81E2,5.28E2,5.33E2,5.25E2,5.25E2,3.56E2,3.43E2,5.35E2,8.8E2,1.75E2,5.28E2,1E0,1.8E1,8.2E1,1.7E1],"tree_param":{"num_deleted":"0","num_feature":"38","num_nodes":"87","size_leaf_vector":"1"}},{"base_weights":[2.8655774E-4,-1.1976647E-1,3.3029103E0,-2.1008182E-1,7.524972E-1,2.6535566E0,1.0296756E1,-2.2589593E-1,8.978236E-2,4.1287643E-1,1.0701342E0,2.2613275E0,3.695706E0,8.771764E0,1.188002E1,-2.2936761E-1,-1.5875569E-1,1.4629282E-2,2.0210709E-1,3.4735504E-1,4.6990234E-1,9.6886843E-1,1.3741385E0,2.0004714E0,2.6904979E0,2.4985354E-1,3.2934856E-1,4.7532174E-1,9.258477E0,1.0876566E1,1.4793251E1,-2.3242588E-1,-2.1586098E-1,-1.8014894E-1,-1.20047756E-1,-2.7825624E-2,2.667846E-2,1.0144869E-2,2.1512552E-1,3.0661067E-1,2.7231256E-2,4.5111594E-1,4.489729E-2,8.5450584E-1,1.0502998E0,1.2580318E0,1.1152368E-1,1.2586963E-1,2.0781822E0,1.8472973E-1,2.0969793E-1,1.2921806E1,6.28753E-1,1.8471873E-1,1.0966729E1,1.5328413E1,1.9351245E-1,-1.757751E-2,-1.7169414E-2,-1.6418124E-2,-1.5456975E-2,-1.4200333E-2,-1.2943059E-2,-1.021705E-2,-7.175087E-3,-3.1033482E-3,-1.0644132E-3,1.5371571E-3,4.774516E-3,1.4085676E-2,1.6631706E-2,2.1540463E-2,2.4212835E-2,3.2474514E-2,3.559368E-2,5.863886E-2,6.764415E-2,7.53414E-2,8.1233904E-2,8.898972E-2,9.9151716E-2,1.451137E-1,1.591456E-1,3.8150638E-1,1.0412948E0,2.1824041E-1,8.284436E-1,1.1827976E0,2.9290104E-1],"categories":[],"categories_nodes":[],"categories_segments":[],"categories_sizes":[],"default_left":[0,0,0,0,0,0,0,0,0,0,0,0,0,0,0,0,0,0,0,0,0,0,0,0,0,0,0,0,0,0,0,0,0,0,0,0,0,0,0,0,0,0,0,0,0,0,0,0,0,0,0,0,0,0,0,0,0,0,0,0,0,0,0,0,0,0,0,0,0,0,0,0,0,0,0,0,0,0,0,0,0,0,0,0,0,0,0,0,0],"id":2,"left_children":[1,3,5,7,9,11,13,15,17,19,21,23,25,27,29,31,33,35,37,39,41,43,45,47,49,-1,-1,-1,51,53,55,57,59,61,63,65,67,-1,69,71,-1,73,-1,75,77,79,-1,-1,81,-1,-1,83,-1,-1,85,87,-1,-1,-1,-1,-1,-1,-1,-1,-1,-1,-1,-1,-1,-1,-1,-1,-1,-1,-1,-1,-1,-1,-1,-1,-1,-1,-1,-1,-1,-1,-1,-1,-1],"loss_changes":[2.3862354E4,4.5750786E3,9.559744E3,2.4957275E2,5.8737524E2,7.8177734E2,3.2797852E2,1.1615234E1,2.2257408E1,9.68222E0,8.53291E1,1.5213379E2,1.18927246E2,5.387256E1,8.758008E1,1.9133301E0,2.0162964E0,8.094977E-1,8.906784E-1,6.769104E-1,3.130127E0,1.879895E1,7.3137207E0,1.8521729E1,5.8032227E0,0E0,0E0,0E0,1.3851855E2,2.3815918E1,8.463379E1,2.0947266E-1,2.164917E-1,7.7510834E-2,3.3369446E-1,6.4080596E-2,2.8040373E-1,0E0,1.1828613E-1,1.7173767E-2,0E0,3.1802368E-1,0E0,2.343628E0,7.602539E-1,4.1931152E-2,0E0,0E0,3.100586E-1,0E0,0E0,2.7373535E1,0E0,0E0,9.964355E0,2.9336914E1,0E0,0E0,0E0,0E0,0E0,0E0,0E0,0E0,0E0,0E0,0E0,0E0,0E0,0E0,0E0,0E0,0E0,0E0,0E0,0E0,0E0,0E0,0E0,0E0,0E0,0E0,0E0,0E0,0E0,0E0,0E0,0E0,0E0],"parents":[2147483647,0,0,1,1,2,2,3,3,4,4,5,5,6,6,7,7,8,8,9,9,10,10,11,11,12,12,13,13,14,14,15,15,16,16,17,17,18,18,19,19,20,20,21,21,22,22,23,23,24,24,28,28,29,29,30,30,31,31,32,32,33,33,34,34,35,35,36,36,38,38,39,39,41,41,43,43,44,44,45,45,48,48,51,51,54,54,55,55],"right_children":[2,4,6,8,10,12,14,16,18,20,22,24,26,28,30,32,34,36,38,40,42,44,46,48,50,-1,-1,-1,52,54,56,58,60,62,64,66,68,-1,70,72,-1,74,-1,76,78,80,-1,-1,82,-1,-1,84,-1,-1,86,88,-1,-1,-1,-1,-1,-1,-1,-1,-1,-1,-1,-1,-1,-1,-1,-1,-1,-1,-1,-1,-1,-1,-1,-1,-1,-1,-1,-1,-1,-1,-1,-1,-1],"split_conditions":[1.2150411E3,6.282255E2,2.1191328E3,3.6998648E2,8.5838745E2,1.6092565E3,1.8172E4,1.795097E2,5.134299E2,7.1231085E2,1.056373E3,1.4186962E3,1.8123983E3,1.1024E3,1.146E2,8.906458E1,2.439032E2,4.315306E2,5.688384E2,6.7574225E2,7.844701E2,9.773255E2,1.1377512E3,1.2705616E3,1.5071431E3,2.4985354E-1,3.2934856E-1,4.7532174E-1,5E-1,8.3149704E1,1.9084103E3,4.5194027E1,1.3097026E2,2.0425867E2,3.0163657E2,4.0880783E2,4.7151712E2,1.0144869E-2,5.9105225E2,6.6165265E2,2.7231256E-2,7.436195E2,4.489729E-2,9.208324E2,1.01343445E3,1.0846655E3,1.1152368E-1,1.2586963E-1,1.352408E3,1.8472973E-1,2.0969793E-1,5.15E1,6.28753E-1,1.8471873E-1,1.92E1,1E-1,1.9351245E-1,-1.757751E-2,-1.7169414E-2,-1.6418124E-2,-1.5456975E-2,-1.4200333E-2,-1.2943059E-2,-1.021705E-2,-7.175087E-3,-3.1033482E-3,-1.0644132E-3,1.5371571E-3,4.774516E-3,1.4085676E-2,1.6631706E-2,2.1540463E-2,2.4212835E-2,3.2474514E-2,3.559368E-2,5.863886E-2,6.764415E-2,7.53414E-2,8.1233904E-2,8.898972E-2,9.9151716E-2,1.451137E-1,1.591456E-1,3.8150638E-1,1.0412948E0,2.1824041E-1,8.284436E-1,1.1827976E0,2.9290104E-1],"split_indices":[34,34,34,34,34,34,30,34,34,34,34,34,34,33,2,34,34,34,34,34,34,34,34,34,34,0,0,0,16,3,3,34,34,34,34,34,34,0,34,34,0,34,0,34,34,34,0,0,34,0,0,2,0,0,0,15,0,0,0,0,0,0,0,0,0,0,0,0,0,0,0,0,0,0,0,0,0,0,0,0,0,0,0,0,0,0,0,0,0],"split_type":[0,0,0,0,0,0,0,0,0,0,0,0,0,0,0,0,0,0,0,0,0,0,0,0,0,0,0,0,0,0,0,0,0,0,0,0,0,0,0,0,0,0,0,0,0,0,0,0,0,0,0,0,0,0,0,0,0,0,0,0,0,0,0,0,0,0,0,0,0,0,0,0,0,0,0,0,0,0,0,0,0,0,0,0,0,0,0,0,0],"sum_hessian":[6.0182E4,5.8072E4,2.11E3,5.2624E4,5.448E3,1.932E3,1.78E2,4.9988E4,2.636E3,2.634E3,2.814E3,1.406E3,5.26E2,9.4E1,8.4E1,4.7528E4,2.46E3,1.58E3,1.056E3,1.229E3,1.405E3,2.114E3,7E2,8.78E2,5.28E2,3.49E2,1.77E2,1.8E1,7.6E1,6.6E1,1.8E1,3.874E4,8.788E3,1.582E3,8.78E2,3.49E2,1.231E3,1.74E2,8.82E2,3.48E2,8.81E2,1.23E3,1.75E2,8.84E2,1.23E3,3.51E2,3.49E2,1.75E2,7.03E2,1.75E2,3.53E2,1.2E1,6.4E1,1E0,6.5E1,1.7E1,1E0,2.4879E4,1.3861E4,6.682E3,2.106E3,7.04E2,8.78E2,5.25E2,3.53E2,1.74E2,1.75E2,1.056E3,1.75E2,1.78E2,7.04E2,1.67E2,1.81E2,7.05E2,5.25E2,3.56E2,5.28E2,5.27E2,7.03E2,1.75E2,1.76E2,1.75E2,5.28E2,2E0,1E1,1E0,6.4E1,1.6E1,1E0],"tree_param":{"num_deleted":"0","num_feature":"38","num_nodes":"89","size_leaf_vector":"1"}},{"base_weights":[3.9021278E-4,-1.1565102E-1,2.9300642E0,-1.9432697E-1,6.704582E-1,2.3680022E0,9.55482E0,-2.0895594E-1,8.306499E-2,3.8198125E-1,9.588997E-1,1.9373872E0,3.231993E0,8.83835E0,1.2818674E1,-2.1228534E-1,-1.4906628E-1,1.3533441E-2,1.8698771E-1,3.2904032E-1,4.425561E-1,8.9633703E-1,1.2120037E0,1.7806398E0,1.8012854E-1,2.9438093E0,3.0478618E-1,4.996307E-1,9.349385E0,1.1099663E1,1.4395351E0,-2.1520412E-1,-2.0088123E-1,-1.6798265E-1,-1.11063965E-1,-2.575061E-2,2.4682699E-2,9.388351E-3,1.9902588E-1,2.9478183E-1,3.4903005E-1,4.2347464E-1,4.1549128E-2,7.6866895E-1,9.5881677E-1,8.235341E-2,9.5008865E-2,1.1221557E-1,1.9227507E0,2.0581947E-1,2.398259E-1,1.2954267E1,8.534915E0,5.0036025E-1,9.07091E-1,-1.6261926E-2,-1.5912412E-2,-1.5302892E-2,-1.4533876E-2,-1.3208938E-2,-1.1973435E-2,-9.452227E-3,-6.638476E-3,-2.871927E-3,-9.850357E-4,1.4219793E-3,4.4184616E-3,1.3719268E-2,1.5701672E-2,1.9934546E-2,2.3064455E-2,2.5555419E-2,2.8454699E-2,3.0668886E-2,3.3128623E-2,5.425326E-2,6.100787E-2,6.752868E-2,7.4496E-2,1.34292E-1,1.4723222E-1,2.1005641E-1,1.0005941E0,6.035013E-1,9.093244E-1],"categories":[],"categories_nodes":[],"categories_segments":[],"categories_sizes":[],"default_left":[0,0,0,0,0,0,0,0,0,0,0,0,0,0,0,0,0,0,0,0,0,0,0,0,0,0,0,0,0,0,0,0,0,0,0,0,0,0,0,0,0,0,0,0,0,0,0,0,0,0,0,0,0,0,0,0,0,0,0,0,0,0,0,0,0,0,0,0,0,0,0,0,0,0,0,0,0,0,0,0,0,0,0,0,0],"id":3,"left_children":[1,3,5,7,9,11,13,15,17,19,21,23,25,27,29,31,33,35,37,39,41,43,45,47,-1,49,-1,-1,51,53,-1,55,57,59,61,63,65,-1,67,69,71,73,-1,75,77,-1,-1,-1,79,-1,-1,81,83,-1,-1,-1,-1,-1,-1,-1,-1,-1,-1,-1,-1,-1,-1,-1,-1,-1,-1,-1,-1,-1,-1,-1,-1,-1,-1,-1,-1,-1,-1,-1,-1],"loss_changes":[2.046033E4,3.5805664E3,8.515414E3,2.1356763E2,4.378938E2,7.8061914E2,3.052881E2,9.936035E0,1.9052189E1,8.304535E0,4.0606934E1,9.863721E1,1.5631885E2,1.0456445E2,1.1572266E2,1.532959E0,1.8762741E0,6.930946E-1,7.615738E-1,8.627014E-1,2.3722382E0,1.6133667E1,1.84906E0,4.000952E1,0E0,1.78208E1,0E0,0E0,2.388291E2,3.385547E1,0E0,1.3977051E-1,1.7697144E-1,9.113312E-2,2.8549957E-1,5.4879963E-2,2.4022955E-1,0E0,1.0857391E-1,1.1258316E-1,9.354401E-2,9.841919E-2,0E0,8.3099365E-1,1.9572754E0,0E0,0E0,0E0,2.397461E-1,0E0,0E0,4.1220215E1,7.768555E1,0E0,0E0,0E0,0E0,0E0,0E0,0E0,0E0,0E0,0E0,0E0,0E0,0E0,0E0,0E0,0E0,0E0,0E0,0E0,0E0,0E0,0E0,0E0,0E0,0E0,0E0,0E0,0E0,0E0,0E0,0E0,0E0],"parents":[2147483647,0,0,1,1,2,2,3,3,4,4,5,5,6,6,7,7,8,8,9,9,10,10,11,11,12,12,13,13,14,14,15,15,16,16,17,17,18,18,19,19,20,20,21,21,22,22,23,23,25,25,28,28,29,29,31,31,32,32,33,33,34,34,35,35,36,36,38,38,39,39,40,40,41,41,43,43,44,44,48,48,51,51,52,52],"right_children":[2,4,6,8,10,12,14,16,18,20,22,24,26,28,30,32,34,36,38,40,42,44,46,48,-1,50,-1,-1,52,54,-1,56,58,60,62,64,66,-1,68,70,72,74,-1,76,78,-1,-1,-1,80,-1,-1,82,84,-1,-1,-1,-1,-1,-1,-1,-1,-1,-1,-1,-1,-1,-1,-1,-1,-1,-1,-1,-1,-1,-1,-1,-1,-1,-1,-1,-1,-1,-1,-1,-1],"split_conditions":[1.1756333E3,6.282255E2,2.1191328E3,3.6998648E2,8.5838745E2,1.5705964E3,2.6826E3,1.7098524E2,5.134299E2,7.247038E2,1.056373E3,1.4186962E3,1.8123983E3,1.2454E4,9.78E1,8.492931E1,2.439032E2,4.315306E2,5.688384E2,6.8400916E2,7.844701E2,9.6382654E2,1.0846655E3,1.2705616E3,1.8012854E-1,1.6813911E3,3.0478618E-1,4.996307E-1,6.666667E-1,9.665966E-4,1.4395351E0,4.2364033E1,1.2338922E2,2.0425867E2,3.0163657E2,4.0880783E2,4.7151712E2,9.388351E-3,5.988856E2,6.6165265E2,7.1231085E2,7.4774396E2,4.1549128E-2,9.208324E2,1.0043378E3,8.235341E-2,9.5008865E-2,1.1221557E-1,1.352408E3,2.0581947E-1,2.398259E-1,4.975E3,1.557E2,5.0036025E-1,9.07091E-1,-1.6261926E-2,-1.5912412E-2,-1.5302892E-2,-1.4533876E-2,-1.3208938E-2,-1.1973435E-2,-9.452227E-3,-6.638476E-3,-2.871927E-3,-9.850357E-4,1.4219793E-3,4.4184616E-3,1.3719268E-2,1.5701672E-2,1.9934546E-2,2.3064455E-2,2.5555419E-2,2.8454699E-2,3.0668886E-2,3.3128623E-2,5.425326E-2,6.100787E-2,6.752868E-2,7.4496E-2,1.34292E-1,1.4723222E-1,2.1005641E-1,1.0005941E0,6.035013E-1,9.093244E-1],"split_indices":[34,34,34,34,34,34,33,34,34,34,34,34,34,30,2,34,34,34,34,34,34,34,34,34,0,34,0,0,16,36,0,34,34,34,34,34,34,0,34,34,34,34,0,34,34,0,0,0,34,0,0,32,2,0,0,0,0,0,0,0,0,0,0,0,0,0,0,0,0,0,0,0,0,0,0,0,0,0,0,0,0,0,0,0,0],"split_type":[0,0,0,0,0,0,0,0,0,0,0,0,0,0,0,0,0,0,0,0,0,0,0,0,0,0,0,0,0,0,0,0,0,0,0,0,0,0,0,0,0,0,0,0,0,0,0,0,0,0,0,0,0,0,0,0,0,0,0,0,0,0,0,0,0,0,0,0,0,0,0,0,0,0,0,0,0,0,0,0,0,0,0,0,0],"sum_hessian":[6.0182E4,5.789E4,2.292E3,5.2624E4,5.266E3,2.114E3,1.78E2,4.9988E4,2.636E3,2.634E3,2.632E3,1.413E3,7.01E2,1.49E2,2.9E1,4.7353E4,2.635E3,1.58E3,1.056E3,1.409E3,1.225E3,2.114E3,5.18E2,1.06E3,3.53E2,5.24E2,1.77E2,3.1E1,1.18E2,2.5E1,4E0,3.7689E4,9.664E3,1.757E3,8.78E2,3.49E2,1.231E3,1.74E2,8.82E2,5.25E2,8.84E2,1.05E3,1.75E2,6.99E2,1.415E3,1.75E2,3.43E2,3.57E2,7.03E2,3E2,2.24E2,1.9E1,9.9E1,6E0,1.9E1,2.4529E4,1.316E4,6.669E3,2.995E3,8.79E2,8.78E2,5.25E2,3.53E2,1.74E2,1.75E2,1.056E3,1.75E2,3.52E2,5.3E2,1.67E2,3.58E2,7.04E2,1.8E2,5.97E2,4.53E2,3.56E2,3.43E2,5.35E2,8.8E2,1.75E2,5.28E2,1E0,1.8E1,9E1,9E0],"tree_param":{"num_deleted":"0","num_feature":"38","num_nodes":"85","size_leaf_vector":"1"}},{"base_weights":[4.933569E-4,-1.0246707E-1,2.8329046E0,-1.7975363E-1,6.4396495E-1,2.2721946E0,8.87212E0,-1.9328631E-1,7.6850586E-2,3.5340947E-1,9.157126E-1,1.9356108E0,3.1665044E0,7.702631E0,1.0583144E1,-1.9625634E-1,-1.358482E-1,1.2519688E-2,1.7300034E-1,3.0443108E-1,4.0945032E-1,8.292334E-1,1.1753242E0,1.7134084E0,2.3011692E0,2.141434E-1,2.8205565E-1,7.402072E0,9.4004655E-1,9.535448E0,1.3788997E1,-1.9853354E-1,-1.826717E-1,-1.514645E-1,-9.650266E-2,-1.4989379E-2,2.6327644E-2,1.1584331E-1,1.8413225E-1,2.7275494E-1,3.2291383E-1,3.9177474E-1,3.845065E-2,7.309756E-1,8.992E-1,8.0682516E-2,9.540694E-2,1.081147E-1,1.7789444E0,1.5752085E-1,1.7959101E-1,4.0604883E-1,7.747204E0,5.2020293E-1,1.0236774E1,1.446226E1,1.636244E-1,-1.4994686E-2,-1.4535811E-2,-1.3871572E-2,-1.3028759E-2,-1.1808635E-2,-1.029601E-2,-7.906028E-3,-5.2107032E-3,-2.6577637E-3,-3.650564E-4,1.5484837E-3,4.08896E-3,6.3075987E-3,8.824814E-3,1.3061848E-2,1.4896085E-2,1.8448355E-2,2.133944E-2,2.309028E-2,2.528223E-2,2.8828062E-2,3.1841777E-2,5.1593583E-2,5.949949E-2,6.4471275E-2,6.957075E-2,1.2427733E-1,1.362107E-1,7.646336E-1,5.5044574E-1,1.5516049E-1,7.789151E-1,1.1282154E0,2.5928593E-1],"categories":[],"categories_nodes":[],"categories_segments":[],"categories_sizes":[],"default_left":[0,0,0,0,0,0,0,0,0,0,0,0,0,0,0,0,0,0,0,0,0,0,0,0,0,0,0,0,0,0,0,0,0,0,0,0,0,0,0,0,0,0,0,0,0,0,0,0,0,0,0,0,0,0,0,0,0,0,0,0,0,0,0,0,0,0,0,0,0,0,0,0,0,0,0,0,0,0,0,0,0,0,0,0,0,0,0,0,0,0,0],"id":4,"left_children":[1,3,5,7,9,11,13,15,17,19,21,23,25,27,29,31,33,35,37,39,41,43,45,47,49,-1,-1,51,-1,53,55,57,59,61,63,65,67,69,71,73,75,77,-1,79,81,-1,-1,-1,83,-1,-1,-1,85,-1,87,89,-1,-1,-1,-1,-1,-1,-1,-1,-1,-1,-1,-1,-1,-1,-1,-1,-1,-1,-1,-1,-1,-1,-1,-1,-1,-1,-1,-1,-1,-1,-1,-1,-1,-1,-1],"loss_changes":[1.7551234E4,3.3502983E3,7.128211E3,1.8275745E2,4.2991724E2,5.7572363E2,2.7666406E2,8.501099E0,1.6308735E1,7.10791E0,6.2225098E1,1.1034473E2,8.673682E1,6.6953125E1,1.0362842E2,1.434082E0,1.4975014E0,6.0092795E-1,6.5120316E-1,7.3742676E-1,2.0360565E0,1.388269E1,5.38501E0,1.3097656E1,4.894287E0,0E0,0E0,3.078955E1,0E0,3.1086914E1,8.5670166E1,2.2949219E-1,1.0758972E-1,1.2776947E-1,1.6174269E-1,1.0931381E-1,1.675263E-1,2.1910667E-4,9.295845E-2,9.580231E-2,8.503723E-2,9.1796875E-2,0E0,1.8303833E0,5.869751E-1,0E0,0E0,0E0,1.8334961E-1,0E0,0E0,0E0,1.3049316E1,0E0,2.9547363E1,3.7450684E1,0E0,0E0,0E0,0E0,0E0,0E0,0E0,0E0,0E0,0E0,0E0,0E0,0E0,0E0,0E0,0E0,0E0,0E0,0E0,0E0,0E0,0E0,0E0,0E0,0E0,0E0,0E0,0E0,0E0,0E0,0E0,0E0,0E0,0E0,0E0],"parents":[2147483647,0,0,1,1,2,2,3,3,4,4,5,5,6,6,7,7,8,8,9,9,10,10,11,11,12,12,13,13,14,14,15,15,16,16,17,17,18,18,19,19,20,20,21,21,22,22,23,23,24,24,27,27,29,29,30,30,31,31,32,32,33,33,34,34,35,35,36,36,37,37,38,38,39,39,40,40,41,41,43,43,44,44,48,48,52,52,54,54,55,55],"right_children":[2,4,6,8,10,12,14,16,18,20,22,24,26,28,30,32,34,36,38,40,42,44,46,48,50,-1,-1,52,-1,54,56,58,60,62,64,66,68,70,72,74,76,78,-1,80,82,-1,-1,-1,84,-1,-1,-1,86,-1,88,90,-1,-1,-1,-1,-1,-1,-1,-1,-1,-1,-1,-1,-1,-1,-1,-1,-1,-1,-1,-1,-1,-1,-1,-1,-1,-1,-1,-1,-1,-1,-1,-1,-1,-1,-1],"split_conditions":[1.2150411E3,6.282255E2,2.1191328E3,3.6998648E2,8.5838745E2,1.6092565E3,2.0264E3,1.795097E2,5.134299E2,7.247038E2,1.056373E3,1.4186962E3,1.8123983E3,4E-1,1.146E2,1.0123026E2,2.7580518E2,4.4538443E2,5.688384E2,6.8400916E2,7.844701E2,9.773255E2,1.1377512E3,1.2705616E3,1.5071431E3,2.141434E-1,2.8205565E-1,1.1024E3,9.4004655E-1,1.3556958E-3,1.9084103E3,6.2999557E1,1.3830338E2,2.2412308E2,3.2970905E2,4.0880783E2,4.7151712E2,2E-1,6.036108E2,6.6165265E2,6.9945044E2,7.541537E2,3.845065E-2,9.4927673E2,1.01343445E3,8.0682516E-2,9.540694E-2,1.081147E-1,1.352408E3,1.5752085E-1,1.7959101E-1,4.0604883E-1,5E-1,5.2020293E-1,8.3149704E1,1E-1,1.636244E-1,-1.4994686E-2,-1.4535811E-2,-1.3871572E-2,-1.3028759E-2,-1.1808635E-2,-1.029601E-2,-7.906028E-3,-5.2107032E-3,-2.6577637E-3,-3.650564E-4,1.5484837E-3,4.08896E-3,6.3075987E-3,8.824814E-3,1.3061848E-2,1.4896085E-2,1.8448355E-2,2.133944E-2,2.309028E-2,2.528223E-2,2.8828062E-2,3.1841777E-2,5.1593583E-2,5.949949E-2,6.4471275E-2,6.957075E-2,1.2427733E-1,1.362107E-1,7.646336E-1,5.5044574E-1,1.5516049E-1,7.789151E-1,1.1282154E0,2.5928593E-1],"split_indices":[34,34,34,34,34,34,33,34,34,34,34,34,34,15,2,34,34,34,34,34,34,34,34,34,34,0,0,33,0,36,3,34,34,34,34,34,34,16,34,34,34,34,0,34,34,0,0,0,34,0,0,0,16,0,3,15,0,0,0,0,0,0,0,0,0,0,0,0,0,0,0,0,0,0,0,0,0,0,0,0,0,0,0,0,0,0,0,0,0,0,0],"split_type":[0,0,0,0,0,0,0,0,0,0,0,0,0,0,0,0,0,0,0,0,0,0,0,0,0,0,0,0,0,0,0,0,0,0,0,0,0,0,0,0,0,0,0,0,0,0,0,0,0,0,0,0,0,0,0,0,0,0,0,0,0,0,0,0,0,0,0,0,0,0,0,0,0,0,0,0,0,0,0,0,0,0,0,0,0,0,0,0,0,0,0],"sum_hessian":[6.0182E4,5.8072E4,2.11E3,5.2624E4,5.448E3,1.932E3,1.78E2,4.9988E4,2.636E3,2.634E3,2.814E3,1.406E3,5.26E2,1.09E2,6.9E1,4.7528E4,2.46E3,1.58E3,1.056E3,1.409E3,1.225E3,2.114E3,7E2,8.78E2,5.28E2,3.49E2,1.77E2,1.05E2,4E0,5.5E1,1.4E1,4.0693E4,6.835E3,1.759E3,7.01E2,5.28E2,1.052E3,1.74E2,8.82E2,5.25E2,8.84E2,1.05E3,1.75E2,8.84E2,1.23E3,3.51E2,3.49E2,1.75E2,7.03E2,1.75E2,3.53E2,1.8E1,8.7E1,1.4E1,4.1E1,1.3E1,1E0,3.1379E4,9.314E3,5.431E3,1.404E3,1.23E3,5.29E2,5.25E2,1.76E2,1.74E2,3.54E2,8.77E2,1.75E2,1.2E1,1.62E2,5.3E2,3.52E2,1.67E2,3.58E2,4.4E2,4.44E2,8.67E2,1.83E2,5.3E2,3.54E2,5.27E2,7.03E2,1.75E2,5.28E2,9E0,7.8E1,1E0,4E1,1.2E1,1E0],"tree_param":{"num_deleted":"0","num_feature":"38","num_nodes":"91","size_leaf_vector":"1"}},{"base_weights":[5.798292E-4,-9.4772354E-2,2.6236904E0,-1.6627298E-1,5.9577924E-1,2.1024017E0,8.238368E0,-1.7879169E-1,7.1104124E-2,3.436377E-1,8.6412865E-1,1.7909416E0,2.929958E0,7.5902405E0,1.12043915E1,-1.8132855E-1,-1.2111191E-1,1.1582365E-2,1.6006608E-1,3.1629133E-1,5.337753E-1,7.960617E-1,1.1360475E0,1.5853221E0,2.1292186E0,2.6417136E0,2.610203E-1,9.500574E0,7.07393E0,7.7961273E0,1.3352116E1,-1.8358399E-1,-1.677987E-1,-1.3689482E-1,-8.9283645E-2,-2.2326518E-2,2.120617E-2,1.0724154E-1,1.7035401E-1,2.7491415E-1,3.5737798E-1,3.5583235E-2,4.4231743E-2,7.094886E-1,8.568662E-1,8.13342E-2,9.2011526E-2,1.0005217E-1,1.6458936E0,1.4577393E-1,1.6615972E-1,1.8262571E-1,2.0592953E-1,3.113898E-1,1.1013716E1,6.132548E0,7.805103E0,6.0512364E-1,1.5966357E-1,1.5887363E1,6.999974E-1,-1.39040025E-2,-1.3517654E-2,-1.2768256E-2,-1.1737996E-2,-1.0607213E-2,-9.22453E-3,-7.3142033E-3,-4.822108E-3,-2.45957E-3,-8.843542E-4,1.2237094E-3,3.7840304E-3,8.077042E-3,3.4056501E-3,1.1037789E-2,1.3199901E-2,1.8176282E-2,2.1561572E-2,2.514385E-2,2.7777923E-2,4.934177E-2,5.5731863E-2,6.2517464E-2,6.833226E-2,1.1500949E-1,1.260142E-1,1.7296997E-1,8.4889007E-1,1.2789021E-1,4.6352288E-1,5.327416E-1,7.734857E-1,4.27287E-1,1.3488728E0],"categories":[],"categories_nodes":[],"categories_segments":[],"categories_sizes":[],"default_left":[0,0,0,0,0,0,0,0,0,0,0,0,0,0,0,0,0,0,0,0,0,0,0,0,0,0,0,0,0,0,0,0,0,0,0,0,0,0,0,0,0,0,0,0,0,0,0,0,0,0,0,0,0,0,0,0,0,0,0,0,0,0,0,0,0,0,0,0,0,0,0,0,0,0,0,0,0,0,0,0,0,0,0,0,0,0,0,0,0,0,0,0,0,0,0],"id":5,"left_children":[1,3,5,7,9,11,13,15,17,19,21,23,25,27,29,31,33,35,37,39,41,43,45,47,49,51,-1,53,55,57,59,61,63,65,67,69,71,73,75,77,79,-1,-1,81,83,-1,-1,-1,85,-1,-1,-1,-1,-1,87,89,91,-1,-1,93,-1,-1,-1,-1,-1,-1,-1,-1,-1,-1,-1,-1,-1,-1,-1,-1,-1,-1,-1,-1,-1,-1,-1,-1,-1,-1,-1,-1,-1,-1,-1,-1,-1,-1,-1],"loss_changes":[1.505318E4,2.8674463E3,6.161298E3,1.5639587E2,3.683933E2,4.9298438E2,2.590586E2,7.2928467E0,1.3961516E1,1.4447174E1,4.7940063E1,9.4490234E1,7.4401855E1,8.074121E1,1.1550537E2,1.4302979E0,1.0472183E0,5.1640505E-1,5.5616E-1,4.0838623E0,8.893585E-1,1.0520142E1,1.1328125E0,1.1183838E1,4.1601562E0,8.391113E-1,0E0,1.8897998E2,3.6108887E1,4.4195557E0,2.492627E1,2.1435547E-1,1.6255188E-1,7.136154E-2,1.3826084E-1,3.8210988E-2,1.7537981E-1,4.7683716E-6,8.965111E-2,4.339447E-1,2.2976685E-1,0E0,0E0,1.0334473E0,8.036499E-1,0E0,0E0,0E0,1.381836E-1,0E0,0E0,0E0,0E0,0E0,3.228882E1,1.7246094E0,4.116626E1,0E0,0E0,8.991211E1,0E0,0E0,0E0,0E0,0E0,0E0,0E0,0E0,0E0,0E0,0E0,0E0,0E0,0E0,0E0,0E0,0E0,0E0,0E0,0E0,0E0,0E0,0E0,0E0,0E0,0E0,0E0,0E0,0E0,0E0,0E0,0E0,0E0,0E0,0E0],"parents":[2147483647,0,0,1,1,2,2,3,3,4,4,5,5,6,6,7,7,8,8,9,9,10,10,11,11,12,12,13,13,14,14,15,15,16,16,17,17,18,18,19,19,20,20,21,21,22,22,23,23,24,24,25,25,27,27,28,28,29,29,30,30,31,31,32,32,33,33,34,34,35,35,36,36,37,37,38,38,39,39,40,40,43,43,44,44,48,48,54,54,55,55,56,56,59,59],"right_children":[2,4,6,8,10,12,14,16,18,20,22,24,26,28,30,32,34,36,38,40,42,44,46,48,50,52,-1,54,56,58,60,62,64,66,68,70,72,74,76,78,80,-1,-1,82,84,-1,-1,-1,86,-1,-1,-1,-1,-1,88,90,92,-1,-1,94,-1,-1,-1,-1,-1,-1,-1,-1,-1,-1,-1,-1,-1,-1,-1,-1,-1,-1,-1,-1,-1,-1,-1,-1,-1,-1,-1,-1,-1,-1,-1,-1,-1,-1,-1],"split_conditions":[1.2150411E3,6.282255E2,2.1191328E3,3.6998648E2,9.0356165E2,1.6092565E3,2.6826E3,1.9112927E2,5.134299E2,7.844701E2,1.0846655E3,1.4186962E3,1.8123983E3,6.666667E-1,1E-1,1.06556244E2,2.7580518E2,4.315306E2,5.688384E2,7.1231085E2,8.5838745E2,9.901018E2,1.1756333E3,1.2705616E3,1.5071431E3,1.6813911E3,2.610203E-1,1.1394E4,1.684E3,2.0032018E3,2E-1,5.070218E1,1.5211432E2,2.2961322E2,3.2970905E2,4.0880783E2,4.7151712E2,1.6E2,5.9105225E2,6.7574225E2,7.37416E2,3.5583235E-2,4.4231743E-2,9.4927673E2,1.0296376E3,8.13342E-2,9.2011526E-2,1.0005217E-1,1.352408E3,1.4577393E-1,1.6615972E-1,1.8262571E-1,2.0592953E-1,3.113898E-1,4.975E3,5.858E3,1.354E2,6.0512364E-1,1.5966357E-1,9.665966E-4,6.999974E-1,-1.39040025E-2,-1.3517654E-2,-1.2768256E-2,-1.1737996E-2,-1.0607213E-2,-9.22453E-3,-7.3142033E-3,-4.822108E-3,-2.45957E-3,-8.843542E-4,1.2237094E-3,3.7840304E-3,8.077042E-3,3.4056501E-3,1.1037789E-2,1.3199901E-2,1.8176282E-2,2.1561572E-2,2.514385E-2,2.7777923E-2,4.934177E-2,5.5731863E-2,6.2517464E-2,6.833226E-2,1.1500949E-1,1.260142E-1,1.7296997E-1,8.4889007E-1,1.2789021E-1,4.6352288E-1,5.327416E-1,7.734857E-1,4.27287E-1,1.3488728E0],"split_indices":[34,34,34,34,34,34,33,34,34,34,34,34,34,16,7,34,34,34,34,34,34,34,34,34,34,34,0,30,33,3,7,34,34,34,34,34,34,31,34,34,34,0,0,34,34,0,0,0,34,0,0,0,0,0,32,32,2,0,0,36,0,0,0,0,0,0,0,0,0,0,0,0,0,0,0,0,0,0,0,0,0,0,0,0,0,0,0,0,0,0,0,0,0,0,0],"split_type":[0,0,0,0,0,0,0,0,0,0,0,0,0,0,0,0,0,0,0,0,0,0,0,0,0,0,0,0,0,0,0,0,0,0,0,0,0,0,0,0,0,0,0,0,0,0,0,0,0,0,0,0,0,0,0,0,0,0,0,0,0,0,0,0,0,0,0,0,0,0,0,0,0,0,0,0,0,0,0,0,0,0,0,0,0,0,0,0,0,0,0,0,0,0,0],"sum_hessian":[6.0182E4,5.8072E4,2.11E3,5.2624E4,5.448E3,1.932E3,1.78E2,4.9988E4,2.636E3,2.81E3,2.638E3,1.406E3,5.26E2,1.49E2,2.9E1,4.788E4,2.108E3,1.58E3,1.056E3,2.459E3,3.51E2,2.113E3,5.25E2,8.78E2,5.28E2,3.49E2,1.77E2,2.8E1,1.21E2,1.3E1,1.6E1,4.1028E4,6.852E3,1.407E3,7.01E2,3.49E2,1.231E3,1.74E2,8.82E2,1.229E3,1.23E3,1.75E2,1.76E2,8.77E2,1.236E3,3.43E2,1.82E2,1.75E2,7.03E2,1.75E2,3.53E2,1.25E2,2.24E2,7E0,2.1E1,5.7E1,6.4E1,1.2E1,1E0,8E0,8E0,2.6635E4,1.4393E4,5.621E3,1.231E3,1.054E3,3.53E2,5.25E2,1.76E2,1.74E2,1.75E2,1.056E3,1.75E2,1.72E2,2E0,1.78E2,7.04E2,3.48E2,8.81E2,4.65E2,7.65E2,3.54E2,5.23E2,8.76E2,3.6E2,1.75E2,5.28E2,1E0,2E1,1E0,5.6E1,5.3E1,1.1E1,2E0,6E0],"tree_param":{"num_deleted":"0","num_feature":"38","num_nodes":"95","size_leaf_vector":"1"}},{"base_weights":[6.744147E-4,-8.765521E-2,2.4305966E0,-1.538034E-1,5.5120254E-1,1.9453956E0,7.656646E0,-1.6538398E-1,6.578549E-2,3.1792623E-1,7.9947406E-1,1.6570851E0,2.711444E0,7.042512E0,1.0472094E1,-1.6772999E-1,-1.1204367E-1,1.07147405E-2,1.4809492E-1,2.9260716E-1,4.939689E-1,7.364687E-1,1.0511734E0,1.466811E0,1.9701169E0,2.4446952E0,2.4155378E-1,8.834005E0,6.5589395E0,8.944713E0,1.224004E0,-1.6984466E-1,-1.5537646E-1,-1.266418E-1,-8.2604654E-2,-1.3183397E-2,2.2710372E-2,9.926403E-2,1.5760489E-1,2.5432786E-1,3.3061764E-1,3.292966E-2,4.0933102E-2,6.563966E-1,7.9270697E-1,7.525186E-2,8.514838E-2,9.259088E-2,1.5227939E0,1.34903E-1,1.5373294E-1,1.690375E-1,1.9055346E-1,3.388078E-1,1.0550589E1,2.9833135E-1,6.753887E0,6.691218E0,8.0126244E-1,-1.2823419E-2,-1.2391784E-2,-1.1820676E-2,-1.0858361E-2,-9.812426E-3,-8.534644E-3,-7.092278E-3,-5.031644E-3,-2.2761566E-3,-3.5133498E-4,1.3408061E-3,3.5018406E-3,5.3117387E-3,7.5692507E-3,1.08109545E-2,1.2469147E-2,1.6816966E-2,1.9946288E-2,2.3746291E-2,2.6158541E-2,4.5651566E-2,5.1559944E-2,5.7834003E-2,6.322154E-2,1.0643279E-1,1.1658099E-1,1.664836E-1,8.154167E-1,4.358675E-1,5.584844E-1,5.389155E-1,1.8626428E-1],"categories":[],"categories_nodes":[],"categories_segments":[],"categories_sizes":[],"default_left":[0,0,0,0,0,0,0,0,0,0,0,0,0,0,0,0,0,0,0,0,0,0,0,0,0,0,0,0,0,0,0,0,0,0,0,0,0,0,0,0,0,0,0,0,0,0,0,0,0,0,0,0,0,0,0,0,0,0,0,0,0,0,0,0,0,0,0,0,0,0,0,0,0,0,0,0,0,0,0,0,0,0,0,0,0,0,0,0,0,0,0],"id":6,"left_children":[1,3,5,7,9,11,13,15,17,19,21,23,25,27,29,31,33,35,37,39,41,43,45,47,49,51,-1,53,55,57,-1,59,61,63,65,67,69,71,73,75,77,-1,-1,79,81,-1,-1,-1,83,-1,-1,-1,-1,-1,85,-1,87,89,-1,-1,-1,-1,-1,-1,-1,-1,-1,-1,-1,-1,-1,-1,-1,-1,-1,-1,-1,-1,-1,-1,-1,-1,-1,-1,-1,-1,-1,-1,-1,-1,-1],"loss_changes":[1.2917537E4,2.454208E3,5.3379346E3,1.3383447E2,3.1532935E2,4.2242822E2,2.3575195E2,6.2368164E0,1.1951516E1,1.2384766E1,4.1076294E1,8.091406E1,6.3718506E1,7.200635E1,1.2198364E2,1.2244873E0,8.958893E-1,4.5352978E-1,4.7520828E-1,3.4952393E0,7.616348E-1,8.99939E0,9.7698975E-1,9.549683E0,3.5358887E0,6.8774414E-1,0E0,1.672207E2,3.4524414E1,3.0391602E1,0E0,1.8591309E-1,1.4305115E-1,6.091118E-2,1.239171E-1,7.703213E-2,1.2120628E-1,1.1110306E-3,7.883644E-2,3.7069702E-1,2.026062E-1,0E0,0E0,8.830261E-1,6.917114E-1,0E0,0E0,0E0,1.0229492E-1,0E0,0E0,0E0,0E0,0E0,2.9455322E1,0E0,2.9817871E1,1.1273926E1,0E0,0E0,0E0,0E0,0E0,0E0,0E0,0E0,0E0,0E0,0E0,0E0,0E0,0E0,0E0,0E0,0E0,0E0,0E0,0E0,0E0,0E0,0E0,0E0,0E0,0E0,0E0,0E0,0E0,0E0,0E0,0E0,0E0],"parents":[2147483647,0,0,1,1,2,2,3,3,4,4,5,5,6,6,7,7,8,8,9,9,10,10,11,11,12,12,13,13,14,14,15,15,16,16,17,17,18,18,19,19,20,20,21,21,22,22,23,23,24,24,25,25,27,27,28,28,29,29,31,31,32,32,33,33,34,34,35,35,36,36,37,37,38,38,39,39,40,40,43,43,44,44,48,48,54,54,56,56,57,57],"right_children":[2,4,6,8,10,12,14,16,18,20,22,24,26,28,30,32,34,36,38,40,42,44,46,48,50,52,-1,54,56,58,-1,60,62,64,66,68,70,72,74,76,78,-1,-1,80,82,-1,-1,-1,84,-1,-1,-1,-1,-1,86,-1,88,90,-1,-1,-1,-1,-1,-1,-1,-1,-1,-1,-1,-1,-1,-1,-1,-1,-1,-1,-1,-1,-1,-1,-1,-1,-1,-1,-1,-1,-1,-1,-1,-1,-1],"split_conditions":[1.2150411E3,6.282255E2,2.1191328E3,3.6998648E2,9.0356165E2,1.6092565E3,2.6826E3,1.9112927E2,5.134299E2,7.844701E2,1.0846655E3,1.4186962E3,1.8123983E3,6.666667E-1,9.78E1,1.03937805E2,2.7580518E2,4.4538443E2,5.688384E2,7.1231085E2,8.5838745E2,9.901018E2,1.1756333E3,1.2705616E3,1.5071431E3,1.6813911E3,2.4155378E-1,1.2454E4,5.79E1,2.0390986E-3,1.224004E0,6.67616E1,1.5211432E2,2.2961322E2,1.025E3,4.0880783E2,4.7151712E2,2E-1,5.988856E2,6.7574225E2,7.436195E2,3.292966E-2,4.0933102E-2,9.4927673E2,1.0296376E3,7.525186E-2,8.514838E-2,9.259088E-2,1.352408E3,1.34903E-1,1.5373294E-1,1.690375E-1,1.9055346E-1,3.388078E-1,4.975E3,2.9833135E-1,1.684E3,1.9085885E-3,8.0126244E-1,-1.2823419E-2,-1.2391784E-2,-1.1820676E-2,-1.0858361E-2,-9.812426E-3,-8.534644E-3,-7.092278E-3,-5.031644E-3,-2.2761566E-3,-3.5133498E-4,1.3408061E-3,3.5018406E-3,5.3117387E-3,7.5692507E-3,1.08109545E-2,1.2469147E-2,1.6816966E-2,1.9946288E-2,2.3746291E-2,2.6158541E-2,4.5651566E-2,5.1559944E-2,5.7834003E-2,6.322154E-2,1.0643279E-1,1.1658099E-1,1.664836E-1,8.154167E-1,4.358675E-1,5.584844E-1,5.389155E-1,1.8626428E-1],"split_indices":[34,34,34,34,34,34,33,34,34,34,34,34,34,16,2,34,34,34,34,34,34,34,34,34,34,34,0,30,2,36,0,34,34,34,32,34,34,16,34,34,34,0,0,34,34,0,0,0,34,0,0,0,0,0,32,0,33,36,0,0,0,0,0,0,0,0,0,0,0,0,0,0,0,0,0,0,0,0,0,0,0,0,0,0,0,0,0,0,0,0,0],"split_type":[0,0,0,0,0,0,0,0,0,0,0,0,0,0,0,0,0,0,0,0,0,0,0,0,0,0,0,0,0,0,0,0,0,0,0,0,0,0,0,0,0,0,0,0,0,0,0,0,0,0,0,0,0,0,0,0,0,0,0,0,0,0,0,0,0,0,0,0,0,0,0,0,0,0,0,0,0,0,0,0,0,0,0,0,0,0,0,0,0,0,0],"sum_hessian":[6.0182E4,5.8072E4,2.11E3,5.2624E4,5.448E3,1.932E3,1.78E2,4.9988E4,2.636E3,2.81E3,2.638E3,1.406E3,5.26E2,1.49E2,2.9E1,4.788E4,2.108E3,1.58E3,1.056E3,2.459E3,3.51E2,2.113E3,5.25E2,8.78E2,5.28E2,3.49E2,1.77E2,2.8E1,1.21E2,2.5E1,4E0,4.0871E4,7.009E3,1.407E3,7.01E2,5.28E2,1.052E3,1.74E2,8.82E2,1.229E3,1.23E3,1.75E2,1.76E2,8.77E2,1.236E3,3.43E2,1.82E2,1.75E2,7.03E2,1.75E2,3.53E2,1.25E2,2.24E2,9E0,1.9E1,1E1,1.11E2,1.3E1,1.2E1,3.2787E4,8.084E3,5.778E3,1.231E3,1.054E3,3.53E2,3.93E2,3.08E2,1.74E2,3.54E2,8.77E2,1.75E2,1.2E1,1.62E2,3.52E2,5.3E2,3.48E2,8.81E2,7.05E2,5.25E2,3.54E2,5.23E2,8.76E2,3.6E2,1.75E2,5.28E2,1E0,1.8E1,5.1E1,6E1,1.1E1,2E0],"tree_param":{"num_deleted":"0","num_feature":"38","num_nodes":"91","size_leaf_vector":"1"}},{"base_weights":[7.4129016E-4,-8.1072465E-2,2.2514136E0,-1.422689E-1,5.099613E-1,1.8001145E0,7.112363E0,-1.5298174E-1,6.086613E-2,2.9413888E-1,7.39657E-1,1.5332332E0,2.5092263E0,6.531746E0,9.778368E0,-1.554238E-1,-1.09053634E-1,9.9125365E-3,1.37022E-1,2.7069685E-1,4.5713106E-1,6.8133676E-1,9.726404E-1,1.3571591E0,1.8229039E0,2.2623706E0,2.2353901E-1,8.216996E0,6.077615E0,8.332569E0,1.1505638E0,-1.576645E-1,-1.472189E-1,-1.2298358E-1,-8.106968E-2,-1.219961E-2,2.1011693E-2,9.189283E-2,1.4581089E-1,2.3528317E-1,3.0586183E-1,3.0473966E-2,3.788047E-2,6.072776E-1,7.333518E-1,6.962438E-2,7.879715E-2,8.568603E-2,1.4089011E0,1.24842755E-1,1.4223556E-1,1.564603E-1,1.7632547E-1,3.1593826E-1,9.80839E0,5.1383605E0,6.7019415E0,6.241175E0,7.4579036E-1,-1.1918839E-2,-1.165963E-2,-1.1238382E-2,-1.0666276E-2,-9.610096E-3,-8.631726E-3,-6.930939E-3,-4.7989967E-3,-2.1064202E-3,-3.2505908E-4,1.2403602E-3,3.2406948E-3,5.6739533E-3,7.1147704E-3,1.0299301E-2,1.1862318E-2,1.5559307E-2,1.8452013E-2,2.1138646E-2,2.3636807E-2,4.223734E-2,4.770033E-2,5.2973885E-2,5.7597328E-2,9.849569E-2,1.0785396E-1,2.533289E-1,7.7514434E-1,9.5223196E-2,3.891257E-1,5.883164E-1,3.887628E-1,5.018651E-1,1.7695105E-1],"categories":[],"categories_nodes":[],"categories_segments":[],"categories_sizes":[],"default_left":[0,0,0,0,0,0,0,0,0,0,0,0,0,0,0,0,0,0,0,0,0,0,0,0,0,0,0,0,0,0,0,0,0,0,0,0,0,0,0,0,0,0,0,0,0,0,0,0,0,0,0,0,0,0,0,0,0,0,0,0,0,0,0,0,0,0,0,0,0,0,0,0,0,0,0,0,0,0,0,0,0,0,0,0,0,0,0,0,0,0,0,0,0],"id":7,"left_children":[1,3,5,7,9,11,13,15,17,19,21,23,25,27,29,31,33,35,37,39,41,43,45,47,49,51,-1,53,55,57,-1,59,61,63,65,67,69,71,73,75,77,-1,-1,79,81,-1,-1,-1,83,-1,-1,-1,-1,-1,85,87,89,91,-1,-1,-1,-1,-1,-1,-1,-1,-1,-1,-1,-1,-1,-1,-1,-1,-1,-1,-1,-1,-1,-1,-1,-1,-1,-1,-1,-1,-1,-1,-1,-1,-1,-1,-1],"loss_changes":[1.1082037E4,2.1005237E3,4.6181865E3,1.1452954E2,2.6990833E2,3.619707E2,2.1320898E2,5.345581E0,1.0231297E1,1.061673E1,3.519507E1,6.9288086E1,5.4568848E1,6.4859375E1,1.1343799E2,8.474121E-1,1.0175819E0,3.8827512E-1,4.0584373E-1,2.991516E0,6.522522E-1,7.698181E0,8.4259033E-1,8.154053E0,3.005371E0,5.6274414E-1,0E0,1.4349084E2,3.7103516E1,2.5555176E1,0E0,7.800293E-2,1.1231995E-1,5.6735992E-2,1.6441059E-1,6.597741E-2,1.0385054E-1,1.2662411E-3,7.0856094E-2,3.1667328E-1,1.8595123E-1,0E0,0E0,7.5445557E-1,6.1499023E-1,0E0,0E0,0E0,7.385254E-2,0E0,0E0,0E0,0E0,0E0,3.285266E1,3.6610107E0,8.075293E1,8.687378E0,0E0,0E0,0E0,0E0,0E0,0E0,0E0,0E0,0E0,0E0,0E0,0E0,0E0,0E0,0E0,0E0,0E0,0E0,0E0,0E0,0E0,0E0,0E0,0E0,0E0,0E0,0E0,0E0,0E0,0E0,0E0,0E0,0E0,0E0,0E0],"parents":[2147483647,0,0,1,1,2,2,3,3,4,4,5,5,6,6,7,7,8,8,9,9,10,10,11,11,12,12,13,13,14,14,15,15,16,16,17,17,18,18,19,19,20,20,21,21,22,22,23,23,24,24,25,25,27,27,28,28,29,29,31,31,32,32,33,33,34,34,35,35,36,36,37,37,38,38,39,39,40,40,43,43,44,44,48,48,54,54,55,55,56,56,57,57],"right_children":[2,4,6,8,10,12,14,16,18,20,22,24,26,28,30,32,34,36,38,40,42,44,46,48,50,52,-1,54,56,58,-1,60,62,64,66,68,70,72,74,76,78,-1,-1,80,82,-1,-1,-1,84,-1,-1,-1,-1,-1,86,88,90,92,-1,-1,-1,-1,-1,-1,-1,-1,-1,-1,-1,-1,-1,-1,-1,-1,-1,-1,-1,-1,-1,-1,-1,-1,-1,-1,-1,-1,-1,-1,-1,-1,-1,-1,-1],"split_conditions":[1.2150411E3,6.282255E2,2.1191328E3,3.6998648E2,9.0356165E2,1.6092565E3,2.6826E3,1.7098524E2,5.134299E2,7.844701E2,1.0846655E3,1.4186962E3,1.8123983E3,6.666667E-1,9.78E1,8.160365E1,2.439032E2,4.4538443E2,5.688384E2,7.1231085E2,8.5838745E2,9.901018E2,1.1756333E3,1.2705616E3,1.5071431E3,1.6813911E3,2.2353901E-1,1.2454E4,3E1,2.0390986E-3,1.1505638E0,3.6166435E1,1.21019554E2,2.1224E2,3.0163657E2,4.0880783E2,4.7151712E2,2.2E1,6.036108E2,6.7574225E2,7.333182E2,3.0473966E-2,3.788047E-2,9.4927673E2,1.0251716E3,6.962438E-2,7.879715E-2,8.568603E-2,1.352408E3,1.24842755E-1,1.4223556E-1,1.564603E-1,1.7632547E-1,3.1593826E-1,4E-1,1.6395515E1,4.9768665E2,1.9085885E-3,7.4579036E-1,-1.1918839E-2,-1.165963E-2,-1.1238382E-2,-1.0666276E-2,-9.610096E-3,-8.631726E-3,-6.930939E-3,-4.7989967E-3,-2.1064202E-3,-3.2505908E-4,1.2403602E-3,3.2406948E-3,5.6739533E-3,7.1147704E-3,1.0299301E-2,1.1862318E-2,1.5559307E-2,1.8452013E-2,2.1138646E-2,2.3636807E-2,4.223734E-2,4.770033E-2,5.2973885E-2,5.7597328E-2,9.849569E-2,1.0785396E-1,2.533289E-1,7.7514434E-1,9.5223196E-2,3.891257E-1,5.883164E-1,3.887628E-1,5.018651E-1,1.7695105E-1],"split_indices":[34,34,34,34,34,34,33,34,34,34,34,34,34,16,2,34,34,34,34,34,34,34,34,34,34,34,0,30,0,36,0,34,34,34,34,34,34,0,34,34,34,0,0,34,34,0,0,0,34,0,0,0,0,0,8,3,3,36,0,0,0,0,0,0,0,0,0,0,0,0,0,0,0,0,0,0,0,0,0,0,0,0,0,0,0,0,0,0,0,0,0,0,0],"split_type":[0,0,0,0,0,0,0,0,0,0,0,0,0,0,0,0,0,0,0,0,0,0,0,0,0,0,0,0,0,0,0,0,0,0,0,0,0,0,0,0,0,0,0,0,0,0,0,0,0,0,0,0,0,0,0,0,0,0,0,0,0,0,0,0,0,0,0,0,0,0,0,0,0,0,0,0,0,0,0,0,0,0,0,0,0,0,0,0,0,0,0,0,0],"sum_hessian":[6.0182E4,5.8072E4,2.11E3,5.2624E4,5.448E3,1.932E3,1.78E2,4.9988E4,2.636E3,2.81E3,2.638E3,1.406E3,5.26E2,1.49E2,2.9E1,4.7353E4,2.635E3,1.58E3,1.056E3,2.459E3,3.51E2,2.113E3,5.25E2,8.78E2,5.28E2,3.49E2,1.77E2,2.8E1,1.21E2,2.5E1,4E0,3.7181E4,1.0172E4,1.757E3,8.78E2,5.28E2,1.052E3,1.74E2,8.82E2,1.229E3,1.23E3,1.75E2,1.76E2,8.77E2,1.236E3,3.43E2,1.82E2,1.75E2,7.03E2,1.75E2,3.53E2,1.25E2,2.24E2,9E0,1.9E1,5.2E1,6.9E1,1.3E1,1.2E1,2.3652E4,1.3529E4,6.651E3,3.521E3,1.054E3,7.03E2,5.25E2,3.53E2,1.74E2,3.54E2,8.77E2,1.75E2,3.1E1,1.43E2,5.3E2,3.52E2,3.48E2,8.81E2,3.52E2,8.78E2,3.54E2,5.23E2,7.06E2,5.3E2,1.75E2,5.28E2,2E0,1.7E1,1E0,5.1E1,3.7E1,3.2E1,1.1E1,2E0],"tree_param":{"num_deleted":"0","num_feature":"38","num_nodes":"93","size_leaf_vector":"1"}},{"base_weights":[8.0123736E-4,-7.4984156E-2,2.085635E0,-1.3159946E-1,4.7180524E-1,1.6656829E0,6.608997E0,-1.4150962E-1,5.6315202E-2,2.721308E-1,6.843149E-1,1.418638E0,2.32209E0,5.4862285E0,7.7861032E0,-1.4343E-1,-9.369356E-2,9.170392E-3,1.2677842E-1,2.504266E-1,4.2304042E-1,6.3033134E-1,8.999745E-1,1.2557044E0,1.6866909E0,2.0936437E0,2.0686777E-1,5.1986914E0,8.35831E0,6.9992743E0,1.0150916E1,-1.4528361E-1,-1.3223141E-1,-1.0434256E-1,-6.508478E-2,-1.8144619E-2,1.6922895E-2,8.507395E-2,1.3490018E-1,2.1766458E-1,2.8295857E-1,2.8201403E-2,3.5055485E-2,5.618342E-1,6.7843986E-1,6.4417735E-2,7.291965E-2,7.92961E-2,1.3035266E0,1.1553275E-1,1.3159803E-1,1.4481892E-1,1.6315983E-1,5.9747787E0,4.269175E0,6.9025993E-1,1.2327657E-1,1.0014607E1,6.5385103E0,1.1794573E1,5.6482778E0,-1.0970344E-2,-1.0582693E-2,-1.0091285E-2,-9.239672E-3,-8.188308E-3,-6.7197834E-3,-5.450575E-3,-3.7249948E-3,-1.9321783E-3,-7.2320644E-4,7.3425967E-4,2.276024E-3,4.0818383E-3,6.4662225E-3,8.640155E-3,1.0478265E-2,1.4906395E-2,1.7359992E-2,2.0392867E-2,2.2595817E-2,3.9078463E-2,4.4129636E-2,4.946567E-2,5.418522E-2,9.3735136E-2,1.0139697E-1,3.2185578E-1,5.4128635E-1,3.982881E-1,2.6605758E-1,1.3117254E-1,8.32554E-1,4.665523E-1,9.602745E-1,9.272124E-1,1.8657988E-1,6.464457E-2,4.7267616E-1],"categories":[],"categories_nodes":[],"categories_segments":[],"categories_sizes":[],"default_left":[0,0,0,0,0,0,0,0,0,0,0,0,0,0,0,0,0,0,0,0,0,0,0,0,0,0,0,0,0,0,0,0,0,0,0,0,0,0,0,0,0,0,0,0,0,0,0,0,0,0,0,0,0,0,0,0,0,0,0,0,0,0,0,0,0,0,0,0,0,0,0,0,0,0,0,0,0,0,0,0,0,0,0,0,0,0,0,0,0,0,0,0,0,0,0,0,0,0,0],"id":8,"left_children":[1,3,5,7,9,11,13,15,17,19,21,23,25,27,29,31,33,35,37,39,41,43,45,47,49,51,-1,53,55,57,59,61,63,65,67,69,71,73,75,77,79,-1,-1,81,83,-1,-1,-1,85,-1,-1,-1,-1,87,89,-1,-1,91,93,95,97,-1,-1,-1,-1,-1,-1,-1,-1,-1,-1,-1,-1,-1,-1,-1,-1,-1,-1,-1,-1,-1,-1,-1,-1,-1,-1,-1,-1,-1,-1,-1,-1,-1,-1,-1,-1,-1,-1],"loss_changes":[9.509067E3,1.7978075E3,3.999037E3,9.8009705E1,2.3102979E2,3.1016504E2,1.9385352E2,4.576782E0,8.758886E0,9.10112E0,3.0156128E1,5.933252E1,4.67334E1,3.500122E1,8.711084E1,9.782715E-1,5.8210754E-1,3.350991E-1,3.4654427E-1,2.560318E0,5.585785E-1,6.585083E0,7.265625E-1,6.9625244E0,2.5541992E0,4.5947266E-1,0E0,3.8696045E1,2.459668E1,2.7606201E1,7.3996216E1,1.4959717E-1,1.2667847E-1,9.052658E-2,5.80585E-2,2.2419393E-2,1.1766803E-1,1.4349222E-3,6.7567825E-2,2.750702E-1,1.6735077E-1,0E0,0E0,6.446228E-1,5.527344E-1,0E0,0E0,0E0,1.4221191E-1,0E0,0E0,0E0,0E0,6.52312E1,1.423053E1,0E0,0E0,4.3427063E1,4.1812256E1,3.799756E1,1.6482117E1,0E0,0E0,0E0,0E0,0E0,0E0,0E0,0E0,0E0,0E0,0E0,0E0,0E0,0E0,0E0,0E0,0E0,0E0,0E0,0E0,0E0,0E0,0E0,0E0,0E0,0E0,0E0,0E0,0E0,0E0,0E0,0E0,0E0,0E0,0E0,0E0,0E0,0E0],"parents":[2147483647,0,0,1,1,2,2,3,3,4,4,5,5,6,6,7,7,8,8,9,9,10,10,11,11,12,12,13,13,14,14,15,15,16,16,17,17,18,18,19,19,20,20,21,21,22,22,23,23,24,24,25,25,27,27,28,28,29,29,30,30,31,31,32,32,33,33,34,34,35,35,36,36,37,37,38,38,39,39,40,40,43,43,44,44,48,48,53,53,54,54,57,57,58,58,59,59,60,60],"right_children":[2,4,6,8,10,12,14,16,18,20,22,24,26,28,30,32,34,36,38,40,42,44,46,48,50,52,-1,54,56,58,60,62,64,66,68,70,72,74,76,78,80,-1,-1,82,84,-1,-1,-1,86,-1,-1,-1,-1,88,90,-1,-1,92,94,96,98,-1,-1,-1,-1,-1,-1,-1,-1,-1,-1,-1,-1,-1,-1,-1,-1,-1,-1,-1,-1,-1,-1,-1,-1,-1,-1,-1,-1,-1,-1,-1,-1,-1,-1,-1,-1,-1,-1],"split_conditions":[1.2150411E3,6.282255E2,2.1191328E3,3.6998648E2,9.0356165E2,1.6092565E3,1.8172E4,1.9600592E2,5.134299E2,7.844701E2,1.0846655E3,1.4186962E3,1.8123983E3,1.1111111E-1,1.146E2,1.09274574E2,2.8930548E2,4.315306E2,5.688384E2,7.1231085E2,8.5838745E2,9.901018E2,1.1756333E3,1.2705616E3,1.5071431E3,1.6813911E3,2.0686777E-1,3.0337228E2,6.71E1,6.666667E-1,8.007606E2,6.8582146E1,1.5211432E2,2.439032E2,3.2970905E2,1.385E3,4.578978E2,5.15E1,5.9105225E2,6.8400916E2,7.4774396E2,2.8201403E-2,3.5055485E-2,9.4927673E2,1.0296376E3,6.4417735E-2,7.291965E-2,7.92961E-2,1.3715901E3,1.1553275E-1,1.3159803E-1,1.4481892E-1,1.6315983E-1,1.514E3,1.1855125E-3,6.9025993E-1,1.2327657E-1,1.92E1,1.5994E4,1E-1,2.0264E3,-1.0970344E-2,-1.0582693E-2,-1.0091285E-2,-9.239672E-3,-8.188308E-3,-6.7197834E-3,-5.450575E-3,-3.7249948E-3,-1.9321783E-3,-7.2320644E-4,7.3425967E-4,2.276024E-3,4.0818383E-3,6.4662225E-3,8.640155E-3,1.0478265E-2,1.4906395E-2,1.7359992E-2,2.0392867E-2,2.2595817E-2,3.9078463E-2,4.4129636E-2,4.946567E-2,5.418522E-2,9.3735136E-2,1.0139697E-1,3.2185578E-1,5.4128635E-1,3.982881E-1,2.6605758E-1,1.3117254E-1,8.32554E-1,4.665523E-1,9.602745E-1,9.272124E-1,1.8657988E-1,6.464457E-2,4.7267616E-1],"split_indices":[34,34,34,34,34,34,30,34,34,34,34,34,34,4,2,34,34,34,34,34,34,34,34,34,34,34,0,3,2,16,3,34,34,34,34,32,34,2,34,34,34,0,0,34,34,0,0,0,34,0,0,0,0,33,36,0,0,0,32,15,33,0,0,0,0,0,0,0,0,0,0,0,0,0,0,0,0,0,0,0,0,0,0,0,0,0,0,0,0,0,0,0,0,0,0,0,0,0,0],"split_type":[0,0,0,0,0,0,0,0,0,0,0,0,0,0,0,0,0,0,0,0,0,0,0,0,0,0,0,0,0,0,0,0,0,0,0,0,0,0,0,0,0,0,0,0,0,0,0,0,0,0,0,0,0,0,0,0,0,0,0,0,0,0,0,0,0,0,0,0,0,0,0,0,0,0,0,0,0,0,0,0,0,0,0,0,0,0,0,0,0,0,0,0,0,0,0,0,0,0,0],"sum_hessian":[6.0182E4,5.8072E4,2.11E3,5.2624E4,5.448E3,1.932E3,1.78E2,4.9988E4,2.636E3,2.81E3,2.638E3,1.406E3,5.26E2,9.4E1,8.4E1,4.8056E4,1.932E3,1.58E3,1.056E3,2.459E3,3.51E2,2.113E3,5.25E2,8.78E2,5.28E2,3.49E2,1.77E2,8.8E1,6E0,6.6E1,1.8E1,4.1221E4,6.835E3,1.406E3,5.26E2,3.49E2,1.231E3,1.74E2,8.82E2,1.229E3,1.23E3,1.75E2,1.76E2,8.77E2,1.236E3,3.43E2,1.82E2,1.75E2,7.03E2,1.75E2,3.53E2,1.25E2,2.24E2,4.5E1,4.3E1,5E0,1E0,6E0,6E1,1.2E1,6E0,3.3317E4,7.904E3,5.428E3,1.407E3,1.054E3,3.52E2,3.5E2,1.76E2,1.83E2,1.66E2,8.05E2,4.26E2,8E0,1.66E2,1.78E2,7.04E2,5.25E2,7.04E2,7.77E2,4.53E2,3.54E2,5.23E2,8.76E2,3.6E2,3.46E2,3.57E2,2.1E1,2.4E1,1.5E1,2.8E1,1E0,5E0,5.9E1,1E0,1.1E1,1E0,1E0,5E0],"tree_param":{"num_deleted":"0","num_feature":"38","num_nodes":"99","size_leaf_vector":"1"}},{"base_weights":[8.7152614E-4,-6.935298E-2,1.932727E0,-1.2173016E-1,4.3650478E-1,1.5412929E0,6.1489797E0,-1.308977E-1,5.2102946E-2,2.5177026E-1,6.3311416E-1,1.2593156E0,2.0339634E0,5.6143622E0,8.617101E0,-1.3298908E-1,-9.3278006E-2,8.482837E-3,1.1729811E-1,2.316752E-1,3.914921E-1,5.7278365E-1,7.990882E-1,1.1618389E0,1.1233486E-1,1.85427E0,1.9143985E-1,7.1557875E0,5.2019386E0,7.2948213E0,1.0327152E0,-1.3497473E-1,-1.2617436E-1,-1.0516611E-1,-6.939567E-2,-1.0642339E-2,1.8082775E-2,7.875368E-2,1.2480431E-1,2.0136598E-1,2.617716E-1,2.6098315E-2,3.2441173E-2,5.197914E-1,6.160552E-1,5.467669E-2,6.5045334E-2,7.3382676E-2,1.2060393E0,1.2970766E-1,1.5097724E-1,2.252388E-1,8.340562E0,4.9303503E0,7.280633E0,3.0651888E-1,8.052846E0,-1.0204088E-2,-9.981488E-3,-9.592978E-3,-9.02174E-3,-8.223938E-3,-7.372014E-3,-5.870047E-3,-3.9582946E-3,-1.8182095E-3,-2.9309333E-4,1.0593757E-3,2.8292916E-3,4.045342E-3,6.0187276E-3,8.79013E-3,1.0191521E-2,1.2192766E-2,1.5548097E-2,1.8032609E-2,2.0253189E-2,3.615584E-2,4.0826228E-2,4.4705953E-2,4.762915E-2,8.416029E-2,9.237555E-2,6.443943E-1,1.1482391E-1,3.0646795E-1,4.1314667E-1,3.475988E-1,8.560453E-1,2.9385188E-1,6.6312563E-1],"categories":[],"categories_nodes":[],"categories_segments":[],"categories_sizes":[],"default_left":[0,0,0,0,0,0,0,0,0,0,0,0,0,0,0,0,0,0,0,0,0,0,0,0,0,0,0,0,0,0,0,0,0,0,0,0,0,0,0,0,0,0,0,0,0,0,0,0,0,0,0,0,0,0,0,0,0,0,0,0,0,0,0,0,0,0,0,0,0,0,0,0,0,0,0,0,0,0,0,0,0,0,0,0,0,0,0,0,0,0,0],"id":9,"left_children":[1,3,5,7,9,11,13,15,17,19,21,23,25,27,29,31,33,35,37,39,41,43,45,47,-1,49,-1,51,53,55,-1,57,59,61,63,65,67,69,71,73,75,-1,-1,77,79,-1,-1,-1,81,-1,-1,-1,83,85,87,-1,89,-1,-1,-1,-1,-1,-1,-1,-1,-1,-1,-1,-1,-1,-1,-1,-1,-1,-1,-1,-1,-1,-1,-1,-1,-1,-1,-1,-1,-1,-1,-1,-1,-1,-1],"loss_changes":[8.164776E3,1.538721E3,3.4744844E3,8.3871216E1,1.9775122E2,2.659751E2,1.8781152E2,3.9204712E0,7.49816E0,7.8018036E0,2.5967407E1,2.6899414E1,6.068164E1,5.813379E1,1.0394263E2,6.2371826E-1,7.4110603E-1,2.9046482E-1,2.9598427E-1,2.1912842E0,4.7835922E-1,4.1260986E0,2.7166443E0,5.9455566E0,0E0,6.92334E0,0E0,1.1762903E2,3.297876E1,3.0312012E1,0E0,5.670166E-2,9.3673706E-2,4.3424606E-2,1.2546206E-1,4.8357036E-2,8.1322044E-2,2.168417E-3,5.8472633E-2,2.498436E-1,1.5231323E-1,0E0,0E0,5.5075073E-1,2.4505615E-2,0E0,0E0,0E0,1.3214111E-1,0E0,0E0,0E0,2.4502441E1,3.1672363E1,7.834021E1,0E0,3.0591553E1,0E0,0E0,0E0,0E0,0E0,0E0,0E0,0E0,0E0,0E0,0E0,0E0,0E0,0E0,0E0,0E0,0E0,0E0,0E0,0E0,0E0,0E0,0E0,0E0,0E0,0E0,0E0,0E0,0E0,0E0,0E0,0E0,0E0,0E0],"parents":[2147483647,0,0,1,1,2,2,3,3,4,4,5,5,6,6,7,7,8,8,9,9,10,10,11,11,12,12,13,13,14,14,15,15,16,16,17,17,18,18,19,19,20,20,21,21,22,22,23,23,25,25,27,27,28,28,29,29,31,31,32,32,33,33,34,34,35,35,36,36,37,37,38,38,39,39,40,40,43,43,44,44,48,48,52,52,53,53,54,54,56,56],"right_children":[2,4,6,8,10,12,14,16,18,20,22,24,26,28,30,32,34,36,38,40,42,44,46,48,-1,50,-1,52,54,56,-1,58,60,62,64,66,68,70,72,74,76,-1,-1,78,80,-1,-1,-1,82,-1,-1,-1,84,86,88,-1,90,-1,-1,-1,-1,-1,-1,-1,-1,-1,-1,-1,-1,-1,-1,-1,-1,-1,-1,-1,-1,-1,-1,-1,-1,-1,-1,-1,-1,-1,-1,-1,-1,-1,-1],"split_conditions":[1.2150411E3,6.282255E2,2.1191328E3,3.6998648E2,9.0356165E2,1.5705964E3,2.6826E3,1.7098524E2,5.134299E2,7.844701E2,1.056373E3,1.4186962E3,1.8123983E3,6.666667E-1,9.78E1,8.029121E1,2.439032E2,4.4538443E2,5.688384E2,7.1231085E2,8.5838745E2,9.901018E2,1.1377512E3,1.2705616E3,1.1233486E-1,1.6813911E3,1.9143985E-1,1.1394E4,1.656E2,9.665966E-4,1.0327152E0,3.2887688E1,1.2660389E2,2.1224E2,1.025E3,4.0880783E2,4.7151712E2,2E-1,6.036108E2,6.6165265E2,7.333182E2,2.6098315E-2,3.2441173E-2,9.4927673E2,1.02313837E3,5.467669E-2,6.5045334E-2,7.3382676E-2,1.352408E3,1.2970766E-1,1.5097724E-1,2.252388E-1,1E-1,1.684E3,1.494E4,3.0651888E-1,6.4E1,-1.0204088E-2,-9.981488E-3,-9.592978E-3,-9.02174E-3,-8.223938E-3,-7.372014E-3,-5.870047E-3,-3.9582946E-3,-1.8182095E-3,-2.9309333E-4,1.0593757E-3,2.8292916E-3,4.045342E-3,6.0187276E-3,8.79013E-3,1.0191521E-2,1.2192766E-2,1.5548097E-2,1.8032609E-2,2.0253189E-2,3.615584E-2,4.0826228E-2,4.4705953E-2,4.762915E-2,8.416029E-2,9.237555E-2,6.443943E-1,1.1482391E-1,3.0646795E-1,4.1314667E-1,3.475988E-1,8.560453E-1,2.9385188E-1,6.6312563E-1],"split_indices":[34,34,34,34,34,34,33,34,34,34,34,34,34,16,2,34,34,34,34,34,34,34,34,34,0,34,0,30,2,36,0,34,34,34,32,34,34,16,34,34,34,0,0,34,34,0,0,0,34,0,0,0,20,33,30,0,2,0,0,0,0,0,0,0,0,0,0,0,0,0,0,0,0,0,0,0,0,0,0,0,0,0,0,0,0,0,0,0,0,0,0],"split_type":[0,0,0,0,0,0,0,0,0,0,0,0,0,0,0,0,0,0,0,0,0,0,0,0,0,0,0,0,0,0,0,0,0,0,0,0,0,0,0,0,0,0,0,0,0,0,0,0,0,0,0,0,0,0,0,0,0,0,0,0,0,0,0,0,0,0,0,0,0,0,0,0,0,0,0,0,0,0,0,0,0,0,0,0,0,0,0,0,0,0,0],"sum_hessian":[6.0182E4,5.8072E4,2.11E3,5.2624E4,5.448E3,1.932E3,1.78E2,4.9988E4,2.636E3,2.81E3,2.638E3,1.231E3,7.01E2,1.49E2,2.9E1,4.7353E4,2.635E3,1.58E3,1.056E3,2.459E3,3.51E2,1.938E3,7E2,8.78E2,3.53E2,5.24E2,1.77E2,2.8E1,1.21E2,2.5E1,4E0,3.6654E4,1.0699E4,1.757E3,8.78E2,5.28E2,1.052E3,1.74E2,8.82E2,1.229E3,1.23E3,1.75E2,1.76E2,8.77E2,1.061E3,3.51E2,3.49E2,1.75E2,7.03E2,3E2,2.24E2,7E0,2.1E1,1.1E2,1.1E1,6E0,1.9E1,2.3274E4,1.338E4,8.25E3,2.449E3,1.054E3,7.03E2,5.7E2,3.08E2,1.74E2,3.54E2,8.77E2,1.75E2,1.2E1,1.62E2,5.3E2,3.52E2,1.67E2,1.062E3,3.52E2,8.78E2,3.54E2,5.23E2,5.33E2,5.28E2,1.75E2,5.28E2,2E1,1E0,4.8E1,6.2E1,8E0,3E0,4E0,1.5E1],"tree_param":{"num_deleted":"0","num_feature":"38","num_nodes":"91","size_leaf_vector":"1"}},{"base_weights":[9.128135E-4,-6.4144954E-2,1.7906328E0,-1.12601034E-1,4.038428E-1,1.4261277E0,5.7168784E0,-1.21081665E-1,4.8206914E-2,2.3293181E-1,5.8574015E-1,1.2140342E0,1.9896746E0,5.21267E0,8.0473585E0,-1.2308447E-1,-8.7449454E-2,7.847749E-3,1.08528234E-1,2.143264E-1,3.622965E-1,5.392962E-1,7.7128524E-1,1.0749853E0,1.4427866E0,1.7945508E0,1.7716253E-1,6.6530504E0,4.8275576E0,6.7963057E0,1.2943364E1,-1.2497195E-1,-1.17282175E-1,-9.6456066E-2,-6.0228065E-2,-1.5740903E-2,1.45427E-2,8.577024E-2,1.19769424E-1,1.8628608E-1,2.4216984E-1,2.4152065E-2,3.0021833E-2,4.8089474E-1,5.8031255E-1,5.5134095E-2,6.262882E-2,6.791025E-2,1.1158371E0,9.8539785E-2,1.1271062E-1,1.2439284E-1,1.8627236E0,2.104575E-1,7.74953E0,4.0098953E0,5.3776793E0,4.9781723E0,8.231503E0,1.0739001E0,2.790806E-1,-9.440305E-3,-9.250013E-3,-8.997316E-3,-8.552913E-3,-7.6427856E-3,-6.654631E-3,-4.9692392E-3,-3.147953E-3,-1.673564E-3,-6.30317E-4,6.2243105E-4,1.9720516E-3,5.46785E-3,7.3401877E-3,8.654303E-3,9.7913975E-3,1.2965255E-2,1.5179834E-2,1.773785E-2,2.0484038E-2,3.3451788E-2,3.7770107E-2,4.135929E-2,4.5103174E-2,8.01278E-2,8.690464E-2,1.2950781E-1,1.495513E-1,1.8686418E-1,6.1130667E-1,3.0832005E-1,1.3083309E-1,4.801713E-1,3.0261546E-1,4.053772E-1,1.20851465E-1,2.6657966E-1,6.569069E-1],"categories":[],"categories_nodes":[],"categories_segments":[],"categories_sizes":[],"default_left":[0,0,0,0,0,0,0,0,0,0,0,0,0,0,0,0,0,0,0,0,0,0,0,0,0,0,0,0,0,0,0,0,0,0,0,0,0,0,0,0,0,0,0,0,0,0,0,0,0,0,0,0,0,0,0,0,0,0,0,0,0,0,0,0,0,0,0,0,0,0,0,0,0,0,0,0,0,0,0,0,0,0,0,0,0,0,0,0,0,0,0,0,0,0,0,0,0,0,0],"id":10,"left_children":[1,3,5,7,9,11,13,15,17,19,21,23,25,27,29,31,33,35,37,39,41,43,45,47,49,51,-1,53,55,57,59,61,63,65,67,69,71,73,75,77,79,-1,-1,81,83,-1,-1,-1,85,-1,-1,-1,87,-1,89,91,93,95,97,-1,-1,-1,-1,-1,-1,-1,-1,-1,-1,-1,-1,-1,-1,-1,-1,-1,-1,-1,-1,-1,-1,-1,-1,-1,-1,-1,-1,-1,-1,-1,-1,-1,-1,-1,-1,-1,-1,-1,-1],"loss_changes":[7.007534E3,1.3169583E3,3.0129766E3,7.177319E1,1.6926349E2,2.2862549E2,1.6838525E2,3.3565063E0,6.418972E0,6.6881104E0,2.23255E1,4.3202393E1,3.4064453E1,5.108838E1,9.578784E1,5.0201416E-1,6.838589E-1,2.4990813E-1,2.601366E-1,1.8755112E0,4.0966034E-1,4.784851E0,5.990906E-1,5.076721E0,2.1190186E0,1.550293E-1,0E0,1.0057898E2,3.3313232E1,2.6866089E1,1.0136475E1,3.6865234E-2,8.718872E-2,7.987213E-2,7.447553E-2,1.6691573E-2,9.0174586E-2,4.78127E-2,1.8220901E-2,2.3088455E-1,1.5124512E-1,0E0,0E0,4.7058105E-1,4.2022705E-1,0E0,0E0,0E0,1.9537354E-1,0E0,0E0,0E0,5.72937E-1,0E0,2.610437E1,4.960266E0,7.047693E1,1.1410706E1,9.2633057E-1,0E0,0E0,0E0,0E0,0E0,0E0,0E0,0E0,0E0,0E0,0E0,0E0,0E0,0E0,0E0,0E0,0E0,0E0,0E0,0E0,0E0,0E0,0E0,0E0,0E0,0E0,0E0,0E0,0E0,0E0,0E0,0E0,0E0,0E0,0E0,0E0,0E0,0E0,0E0,0E0],"parents":[2147483647,0,0,1,1,2,2,3,3,4,4,5,5,6,6,7,7,8,8,9,9,10,10,11,11,12,12,13,13,14,14,15,15,16,16,17,17,18,18,19,19,20,20,21,21,22,22,23,23,24,24,25,25,27,27,28,28,29,29,30,30,31,31,32,32,33,33,34,34,35,35,36,36,37,37,38,38,39,39,40,40,43,43,44,44,48,48,52,52,54,54,55,55,56,56,57,57,58,58],"right_children":[2,4,6,8,10,12,14,16,18,20,22,24,26,28,30,32,34,36,38,40,42,44,46,48,50,52,-1,54,56,58,60,62,64,66,68,70,72,74,76,78,80,-1,-1,82,84,-1,-1,-1,86,-1,-1,-1,88,-1,90,92,94,96,98,-1,-1,-1,-1,-1,-1,-1,-1,-1,-1,-1,-1,-1,-1,-1,-1,-1,-1,-1,-1,-1,-1,-1,-1,-1,-1,-1,-1,-1,-1,-1,-1,-1,-1,-1,-1,-1,-1,-1,-1],"split_conditions":[1.2150411E3,6.282255E2,2.1191328E3,3.6998648E2,9.0356165E2,1.6092565E3,2.6826E3,1.6417622E2,5.134299E2,7.844701E2,1.0846655E3,1.4186962E3,1.8123983E3,6.666667E-1,9.78E1,7.800114E1,2.7580518E2,4.315306E2,5.9105225E2,7.1231085E2,8.5838745E2,9.901018E2,1.1756333E3,1.2705616E3,1.5071431E3,1.6813911E3,1.7716253E-1,1.1394E4,3E1,2.0390986E-3,7.019521E2,3.1059263E1,1.15747856E2,2.1224E2,3.2970905E2,1.385E3,4.578978E2,5.688384E2,6.105304E2,6.8978955E2,7.541537E2,2.4152065E-2,3.0021833E-2,9.4927673E2,1.02313837E3,5.5134095E-2,6.262882E-2,6.791025E-2,1.3715901E3,9.8539785E-2,1.1271062E-1,1.2439284E-1,2.5E-1,2.104575E-1,4E-1,3E-1,4.9768665E2,1.9085885E-3,6.4E1,1.0739001E0,2.790806E-1,-9.440305E-3,-9.250013E-3,-8.997316E-3,-8.552913E-3,-7.6427856E-3,-6.654631E-3,-4.9692392E-3,-3.147953E-3,-1.673564E-3,-6.30317E-4,6.2243105E-4,1.9720516E-3,5.46785E-3,7.3401877E-3,8.654303E-3,9.7913975E-3,1.2965255E-2,1.5179834E-2,1.773785E-2,2.0484038E-2,3.3451788E-2,3.7770107E-2,4.135929E-2,4.5103174E-2,8.01278E-2,8.690464E-2,1.2950781E-1,1.495513E-1,1.8686418E-1,6.1130667E-1,3.0832005E-1,1.3083309E-1,4.801713E-1,3.0261546E-1,4.053772E-1,1.20851465E-1,2.6657966E-1,6.569069E-1],"split_indices":[34,34,34,34,34,34,33,34,34,34,34,34,34,16,2,34,34,34,34,34,34,34,34,34,34,34,0,30,0,36,3,34,34,34,34,32,34,34,34,34,34,0,0,34,34,0,0,0,34,0,0,0,16,0,8,23,3,36,2,0,0,0,0,0,0,0,0,0,0,0,0,0,0,0,0,0,0,0,0,0,0,0,0,0,0,0,0,0,0,0,0,0,0,0,0,0,0,0,0],"split_type":[0,0,0,0,0,0,0,0,0,0,0,0,0,0,0,0,0,0,0,0,0,0,0,0,0,0,0,0,0,0,0,0,0,0,0,0,0,0,0,0,0,0,0,0,0,0,0,0,0,0,0,0,0,0,0,0,0,0,0,0,0,0,0,0,0,0,0,0,0,0,0,0,0,0,0,0,0,0,0,0,0,0,0,0,0,0,0,0,0,0,0,0,0,0,0,0,0,0,0],"sum_hessian":[6.0182E4,5.8072E4,2.11E3,5.2624E4,5.448E3,1.932E3,1.78E2,4.9988E4,2.636E3,2.81E3,2.638E3,1.406E3,5.26E2,1.49E2,2.9E1,4.7176E4,2.812E3,1.58E3,1.056E3,2.459E3,3.51E2,2.113E3,5.25E2,8.78E2,5.28E2,3.49E2,1.77E2,2.8E1,1.21E2,2.5E1,4E0,3.5581E4,1.1595E4,2.111E3,7.01E2,3.49E2,1.231E3,3.52E2,7.04E2,1.229E3,1.23E3,1.75E2,1.76E2,8.77E2,1.236E3,3.43E2,1.82E2,1.75E2,7.03E2,1.75E2,3.53E2,1.25E2,2.24E2,7E0,2.1E1,5.2E1,6.9E1,1.3E1,1.2E1,3E0,1E0,2.2928E4,1.2653E4,6.327E3,5.268E3,1.231E3,8.8E2,5.25E2,1.76E2,1.83E2,1.66E2,8.05E2,4.26E2,1.74E2,1.78E2,5.09E2,1.95E2,6.77E2,5.52E2,1.047E3,1.83E2,3.54E2,5.23E2,5.33E2,7.03E2,3.46E2,3.57E2,1.17E2,1.07E2,2E0,1.9E1,4.9E1,3E0,3.7E1,3.2E1,1.1E1,2E0,2E0,1E1],"tree_param":{"num_deleted":"0","num_feature":"38","num_nodes":"99","size_leaf_vector":"1"}},{"base_weights":[9.511751E-4,-5.9327733E-2,1.659206E0,-1.0415647E-1,3.7362728E-1,1.3196992E0,5.3162313E0,-1.1200171E-1,4.460336E-2,2.1550481E-1,5.41914E-1,1.0775471E0,1.742793E0,4.83659E0,7.53723E0,-1.1352433E-1,-7.408936E-2,7.259351E-3,1.0041819E-1,1.982789E-1,3.3527815E-1,4.899665E-1,6.848301E-1,9.9462867E-1,9.602953E-2,1.5892053E0,1.6394998E-1,3.0115674E0,5.062642E0,6.342341E0,1.2243208E1,-1.1498064E-1,-1.04455024E-1,-8.263714E-2,-5.112767E-2,-9.28203E-3,1.556242E-2,7.937376E-2,1.1081289E-1,1.723375E-1,2.2403815E-1,2.2350952E-2,2.7782919E-2,4.354759E-1,5.2095264E-1,4.68383E-2,5.5765327E-2,6.284592E-2,1.0323865E0,1.1122284E-1,1.7242595E0,1.6954285E-1,2.8212118E-1,7.0782623E0,4.59517E0,5.662954E0,8.7476295E-1,1.0134933E0,2.686151E-1,-8.71864E-3,-8.460592E-3,-7.98744E-3,-7.337785E-3,-6.477852E-3,-5.3432025E-3,-4.2882804E-3,-2.9131905E-3,-1.5690005E-3,-2.6391397E-4,9.0444693E-4,2.471237E-3,5.060104E-3,6.792749E-3,8.006504E-3,9.06079E-3,1.126897E-2,1.3566059E-2,1.5613935E-2,1.7504217E-2,3.094997E-2,3.4279414E-2,3.7272234E-2,4.036536E-2,7.413552E-2,8.0405E-2,1.19877025E-1,1.384388E-1,2.1374576E-1,5.67751E-1,3.2442987E-1,6.4083636E-1,2.4196729E-1,4.583118E-1],"categories":[],"categories_nodes":[],"categories_segments":[],"categories_sizes":[],"default_left":[0,0,0,0,0,0,0,0,0,0,0,0,0,0,0,0,0,0,0,0,0,0,0,0,0,0,0,0,0,0,0,0,0,0,0,0,0,0,0,0,0,0,0,0,0,0,0,0,0,0,0,0,0,0,0,0,0,0,0,0,0,0,0,0,0,0,0,0,0,0,0,0,0,0,0,0,0,0,0,0,0,0,0,0,0,0,0,0,0,0,0,0,0],"id":11,"left_children":[1,3,5,7,9,11,13,15,17,19,21,23,25,27,29,31,33,35,37,39,41,43,45,47,-1,49,-1,51,53,55,57,59,61,63,65,67,69,71,73,75,77,-1,-1,79,81,-1,-1,-1,83,-1,85,-1,-1,87,89,91,-1,-1,-1,-1,-1,-1,-1,-1,-1,-1,-1,-1,-1,-1,-1,-1,-1,-1,-1,-1,-1,-1,-1,-1,-1,-1,-1,-1,-1,-1,-1,-1,-1,-1,-1,-1,-1],"loss_changes":[6.0158584E3,1.1271678E3,2.6139707E3,6.1421326E1,1.4488062E2,1.9616382E2,1.5423096E2,2.8771973E0,5.4957004E0,5.7331696E0,1.9256775E1,1.9448242E1,4.4311768E1,4.663623E1,9.104309E1,6.227417E-1,3.7516785E-1,2.1728566E-1,2.2242355E-1,1.6052475E0,3.5082626E-1,3.047058E0,2.0180664E0,4.335144E0,0E0,4.975342E0,0E0,2.1989746E0,9.185083E1,2.7943481E1,6.6050415E0,1.0095215E-1,7.96814E-2,5.37138E-2,3.694451E-2,3.540732E-2,6.374121E-2,4.0943623E-2,1.5715599E-2,2.048912E-1,1.3389587E-1,0E0,0E0,1.6043091E-1,2.420044E-1,0E0,0E0,0E0,1.6693115E-1,0E0,4.9401855E-1,0E0,0E0,2.6249146E1,8.00896E1,7.5684204E0,0E0,0E0,0E0,0E0,0E0,0E0,0E0,0E0,0E0,0E0,0E0,0E0,0E0,0E0,0E0,0E0,0E0,0E0,0E0,0E0,0E0,0E0,0E0,0E0,0E0,0E0,0E0,0E0,0E0,0E0,0E0,0E0,0E0,0E0,0E0,0E0,0E0],"parents":[2147483647,0,0,1,1,2,2,3,3,4,4,5,5,6,6,7,7,8,8,9,9,10,10,11,11,12,12,13,13,14,14,15,15,16,16,17,17,18,18,19,19,20,20,21,21,22,22,23,23,25,25,27,27,28,28,29,29,30,30,31,31,32,32,33,33,34,34,35,35,36,36,37,37,38,38,39,39,40,40,43,43,44,44,48,48,50,50,53,53,54,54,55,55],"right_children":[2,4,6,8,10,12,14,16,18,20,22,24,26,28,30,32,34,36,38,40,42,44,46,48,-1,50,-1,52,54,56,58,60,62,64,66,68,70,72,74,76,78,-1,-1,80,82,-1,-1,-1,84,-1,86,-1,-1,88,90,92,-1,-1,-1,-1,-1,-1,-1,-1,-1,-1,-1,-1,-1,-1,-1,-1,-1,-1,-1,-1,-1,-1,-1,-1,-1,-1,-1,-1,-1,-1,-1,-1,-1,-1,-1,-1,-1],"split_conditions":[1.2150411E3,6.282255E2,2.1191328E3,3.6998648E2,9.0356165E2,1.5705964E3,2.6826E3,1.9600592E2,5.134299E2,7.844701E2,1.056373E3,1.4186962E3,1.8123983E3,1.1024E3,9.78E1,1.1118898E2,2.8930548E2,4.4538443E2,5.9105225E2,7.1231085E2,8.5838745E2,9.773255E2,1.1377512E3,1.2705616E3,9.602953E-2,1.6813911E3,1.6394998E-1,1.656E2,6.666667E-1,1.5994E4,7.019521E2,4.8817574E1,1.4676456E2,2.439032E2,3.2970905E2,4.0880783E2,4.7151712E2,5.688384E2,6.105304E2,6.7574225E2,7.37416E2,2.2350952E-2,2.7782919E-2,9.4927673E2,1.01343445E3,4.68383E-2,5.5765327E-2,6.284592E-2,1.3715901E3,1.1122284E-1,2.5E-1,1.6954285E-1,2.8212118E-1,4E-1,1.656E2,8.424997E-4,8.7476295E-1,1.0134933E0,2.686151E-1,-8.71864E-3,-8.460592E-3,-7.98744E-3,-7.337785E-3,-6.477852E-3,-5.3432025E-3,-4.2882804E-3,-2.9131905E-3,-1.5690005E-3,-2.6391397E-4,9.0444693E-4,2.471237E-3,5.060104E-3,6.792749E-3,8.006504E-3,9.06079E-3,1.126897E-2,1.3566059E-2,1.5613935E-2,1.7504217E-2,3.094997E-2,3.4279414E-2,3.7272234E-2,4.036536E-2,7.413552E-2,8.0405E-2,1.19877025E-1,1.384388E-1,2.1374576E-1,5.67751E-1,3.2442987E-1,6.4083636E-1,2.4196729E-1,4.583118E-1],"split_indices":[34,34,34,34,34,34,33,34,34,34,34,34,34,33,2,34,34,34,34,34,34,34,34,34,0,34,0,2,16,32,3,34,34,34,34,34,34,34,34,34,34,0,0,34,34,0,0,0,34,0,16,0,0,8,2,36,0,0,0,0,0,0,0,0,0,0,0,0,0,0,0,0,0,0,0,0,0,0,0,0,0,0,0,0,0,0,0,0,0,0,0,0,0],"split_type":[0,0,0,0,0,0,0,0,0,0,0,0,0,0,0,0,0,0,0,0,0,0,0,0,0,0,0,0,0,0,0,0,0,0,0,0,0,0,0,0,0,0,0,0,0,0,0,0,0,0,0,0,0,0,0,0,0,0,0,0,0,0,0,0,0,0,0,0,0,0,0,0,0,0,0,0,0,0,0,0,0,0,0,0,0,0,0,0,0,0,0,0,0],"sum_hessian":[6.0182E4,5.8072E4,2.11E3,5.2624E4,5.448E3,1.932E3,1.78E2,4.9988E4,2.636E3,2.81E3,2.638E3,1.231E3,7.01E2,1.49E2,2.9E1,4.8056E4,1.932E3,1.58E3,1.056E3,2.459E3,3.51E2,1.938E3,7E2,8.78E2,3.53E2,5.24E2,1.77E2,1.8E1,1.31E2,2.5E1,4E0,4.1397E4,6.659E3,1.406E3,5.26E2,5.28E2,1.052E3,3.52E2,7.04E2,1.229E3,1.23E3,1.75E2,1.76E2,7.08E2,1.23E3,3.51E2,3.49E2,1.75E2,7.03E2,3E2,2.24E2,1.1E1,7E0,2.2E1,1.09E2,2.4E1,1E0,3E0,1E0,2.6109E4,1.5288E4,5.076E3,1.583E3,1.054E3,3.52E2,3.5E2,1.76E2,1.74E2,3.54E2,8.77E2,1.75E2,1.74E2,1.78E2,5.09E2,1.95E2,3.48E2,8.81E2,4.65E2,7.65E2,3.54E2,3.54E2,5.27E2,7.03E2,3.46E2,3.57E2,1.17E2,1.07E2,3E0,1.9E1,1.04E2,5E0,5E0,1.9E1],"tree_param":{"num_deleted":"0","num_feature":"38","num_nodes":"93","size_leaf_vector":"1"}},{"base_weights":[9.834397E-4,-5.4872423E-2,1.5375617E0,-9.6345134E-2,3.4567013E-1,1.2211599E0,4.9457574E0,-1.0360261E-1,4.126966E-2,1.993804E-1,5.0136346E-1,1.0389236E0,1.7053826E0,4.488502E0,7.067176E0,-1.0514035E-1,-7.1438424E-2,6.7158756E-3,9.291419E-2,1.8343154E-1,3.1027472E-1,4.6140835E-1,6.6099036E-1,9.202788E-1,1.2341028E0,1.538994E0,2.0229707E0,5.7558055E0,4.1504664E0,5.9272437E0,1.1581388E1,-1.06502466E-1,-9.789071E-2,-8.0225416E-2,-5.1522125E-2,-5.523467E-3,1.6522003E-2,7.34543E-2,1.02526136E-1,1.5943238E-1,2.072622E-1,2.0684155E-2,2.5710972E-2,4.1143474E-1,4.965057E-1,4.718337E-2,5.3797778E-2,5.815926E-2,9.551771E-1,8.402999E-2,9.653603E-2,1.0686193E-1,1.5960882E0,1.334051E-1,1.5924928E-1,2.1510027E-1,6.9119163E0,3.9050732E0,6.0744834E0,5.2662435E0,8.419593E-1,9.564842E-1,2.5854203E-1,-8.073722E-3,-7.8569045E-3,-7.463404E-3,-6.9363755E-3,-6.280704E-3,-5.480945E-3,-4.249923E-3,-2.6959355E-3,-1.4259241E-3,-4.82457E-5,9.7506586E-4,2.286947E-3,4.682765E-3,6.2861387E-3,7.4071935E-3,8.384697E-3,9.477003E-3,1.2338196E-2,1.5160123E-2,1.7650403E-2,2.8635262E-2,3.2304313E-2,3.582802E-2,3.9045025E-2,6.638011E-2,7.325227E-2,1.10962436E-1,1.2815204E-1,5.7874117E-2,5.395856E-1,2.3636079E-1,3.3219138E-1,2.749305E-1,7.4816525E-1,2.2684433E-1,4.2565703E-1],"categories":[],"categories_nodes":[],"categories_segments":[],"categories_sizes":[],"default_left":[0,0,0,0,0,0,0,0,0,0,0,0,0,0,0,0,0,0,0,0,0,0,0,0,0,0,0,0,0,0,0,0,0,0,0,0,0,0,0,0,0,0,0,0,0,0,0,0,0,0,0,0,0,0,0,0,0,0,0,0,0,0,0,0,0,0,0,0,0,0,0,0,0,0,0,0,0,0,0,0,0,0,0,0,0,0,0,0,0,0,0,0,0,0,0,0,0,0,0],"id":12,"left_children":[1,3,5,7,9,11,13,15,17,19,21,23,25,27,29,31,33,35,37,39,41,43,45,47,49,51,53,55,57,59,61,63,65,67,69,71,73,75,77,79,81,-1,-1,83,85,-1,-1,-1,87,-1,-1,-1,89,-1,-1,-1,91,93,95,97,-1,-1,-1,-1,-1,-1,-1,-1,-1,-1,-1,-1,-1,-1,-1,-1,-1,-1,-1,-1,-1,-1,-1,-1,-1,-1,-1,-1,-1,-1,-1,-1,-1,-1,-1,-1,-1,-1,-1],"loss_changes":[5.1654053E3,9.647179E2,2.2703765E3,5.2562744E1,1.240083E2,1.6880176E2,1.4191455E2,2.4649048E0,4.7051396E0,4.9147263E0,1.6526306E1,3.1446167E1,2.4735107E1,4.036963E1,8.57312E1,4.6063232E-1,3.9557648E-1,1.898438E-1,1.9017696E-1,1.3738708E0,3.0044174E-1,3.50354E0,4.9301147E-1,3.7018433E0,1.7484741E0,7.2021484E-3,5.8587646E-1,7.699652E1,3.3879883E1,3.1947144E1,3.6924438E0,6.906128E-2,5.7037354E-2,3.3668518E-2,5.420518E-2,4.633081E-2,4.279442E-2,3.5061955E-2,1.355505E-2,1.857357E-1,1.2963486E-1,0E0,0E0,3.3738708E-1,3.11615E-1,0E0,0E0,0E0,1.9769287E-1,0E0,0E0,0E0,4.2596436E-1,0E0,0E0,0E0,2.914795E1,2.988562E1,7.6191925E1,5.765259E0,0E0,0E0,0E0,0E0,0E0,0E0,0E0,0E0,0E0,0E0,0E0,0E0,0E0,0E0,0E0,0E0,0E0,0E0,0E0,0E0,0E0,0E0,0E0,0E0,0E0,0E0,0E0,0E0,0E0,0E0,0E0,0E0,0E0,0E0,0E0,0E0,0E0,0E0,0E0],"parents":[2147483647,0,0,1,1,2,2,3,3,4,4,5,5,6,6,7,7,8,8,9,9,10,10,11,11,12,12,13,13,14,14,15,15,16,16,17,17,18,18,19,19,20,20,21,21,22,22,23,23,24,24,25,25,26,26,27,27,28,28,29,29,30,30,31,31,32,32,33,33,34,34,35,35,36,36,37,37,38,38,39,39,40,40,43,43,44,44,48,48,52,52,56,56,57,57,58,58,59,59],"right_children":[2,4,6,8,10,12,14,16,18,20,22,24,26,28,30,32,34,36,38,40,42,44,46,48,50,52,54,56,58,60,62,64,66,68,70,72,74,76,78,80,82,-1,-1,84,86,-1,-1,-1,88,-1,-1,-1,90,-1,-1,-1,92,94,96,98,-1,-1,-1,-1,-1,-1,-1,-1,-1,-1,-1,-1,-1,-1,-1,-1,-1,-1,-1,-1,-1,-1,-1,-1,-1,-1,-1,-1,-1,-1,-1,-1,-1,-1,-1,-1,-1,-1,-1],"split_conditions":[1.2150411E3,6.282255E2,2.1191328E3,3.6998648E2,9.0356165E2,1.6092565E3,2.6826E3,1.857341E2,5.134299E2,7.844701E2,1.0846655E3,1.4186962E3,1.8123983E3,6.666667E-1,9.78E1,9.615733E1,2.7580518E2,4.4988474E2,5.9105225E2,7.1231085E2,8.5838745E2,9.901018E2,1.1756333E3,1.2705616E3,1.5071431E3,1.6813911E3,1.4594E3,1.2454E4,1.656E2,1.5994E4,7.019521E2,4.0017914E1,1.359397E2,2.2412308E2,3.2970905E2,1.385E3,4.7151712E2,5.688384E2,6.105304E2,6.6165265E2,7.541537E2,2.0684155E-2,2.5710972E-2,9.4927673E2,1.0251716E3,4.718337E-2,5.3797778E-2,5.815926E-2,1.352408E3,8.402999E-2,9.653603E-2,1.0686193E-1,2.5E-1,1.334051E-1,1.5924928E-1,2.1510027E-1,4.975E3,1.684E3,1.494E4,8.424997E-4,8.419593E-1,9.564842E-1,2.5854203E-1,-8.073722E-3,-7.8569045E-3,-7.463404E-3,-6.9363755E-3,-6.280704E-3,-5.480945E-3,-4.249923E-3,-2.6959355E-3,-1.4259241E-3,-4.82457E-5,9.7506586E-4,2.286947E-3,4.682765E-3,6.2861387E-3,7.4071935E-3,8.384697E-3,9.477003E-3,1.2338196E-2,1.5160123E-2,1.7650403E-2,2.8635262E-2,3.2304313E-2,3.582802E-2,3.9045025E-2,6.638011E-2,7.325227E-2,1.10962436E-1,1.2815204E-1,5.7874117E-2,5.395856E-1,2.3636079E-1,3.3219138E-1,2.749305E-1,7.4816525E-1,2.2684433E-1,4.2565703E-1],"split_indices":[34,34,34,34,34,34,33,34,34,34,34,34,34,16,2,34,34,34,34,34,34,34,34,34,34,34,33,30,2,32,3,34,34,34,34,32,34,34,34,34,34,0,0,34,34,0,0,0,34,0,0,0,16,0,0,0,32,33,30,36,0,0,0,0,0,0,0,0,0,0,0,0,0,0,0,0,0,0,0,0,0,0,0,0,0,0,0,0,0,0,0,0,0,0,0,0,0,0,0],"split_type":[0,0,0,0,0,0,0,0,0,0,0,0,0,0,0,0,0,0,0,0,0,0,0,0,0,0,0,0,0,0,0,0,0,0,0,0,0,0,0,0,0,0,0,0,0,0,0,0,0,0,0,0,0,0,0,0,0,0,0,0,0,0,0,0,0,0,0,0,0,0,0,0,0,0,0,0,0,0,0,0,0,0,0,0,0,0,0,0,0,0,0,0,0,0,0,0,0,0,0],"sum_hessian":[6.0182E4,5.8072E4,2.11E3,5.2624E4,5.448E3,1.932E3,1.78E2,4.9988E4,2.636E3,2.81E3,2.638E3,1.406E3,5.26E2,1.49E2,2.9E1,4.7705E4,2.283E3,1.58E3,1.056E3,2.459E3,3.51E2,2.113E3,5.25E2,8.78E2,5.28E2,3.49E2,1.77E2,2.8E1,1.21E2,2.5E1,4E0,4.0148E4,7.557E3,1.582E3,7.01E2,7.03E2,8.77E2,3.52E2,7.04E2,1.229E3,1.23E3,1.75E2,1.76E2,8.77E2,1.236E3,3.43E2,1.82E2,1.75E2,7.03E2,1.75E2,3.53E2,1.25E2,2.24E2,5.7E1,1.2E2,9E0,1.9E1,1.1E2,1.1E1,2.4E1,1E0,3E0,1E0,2.418E4,1.5968E4,5.8E3,1.757E3,1.053E3,5.29E2,5.25E2,1.76E2,1.86E2,5.17E2,7.02E2,1.75E2,1.74E2,1.78E2,5.09E2,1.95E2,1.67E2,1.062E3,1.047E3,1.83E2,3.54E2,5.23E2,7.06E2,5.3E2,1.75E2,5.28E2,1.17E2,1.07E2,1E0,1.8E1,4.8E1,6.2E1,8E0,3E0,5E0,1.9E1],"tree_param":{"num_deleted":"0","num_feature":"38","num_nodes":"99","size_leaf_vector":"1"}},{"base_weights":[1.016821E-3,-5.075153E-2,1.4251487E0,-8.911964E-2,3.1980687E-1,1.130099E0,4.6033936E0,-9.58334E-2,3.818526E-2,1.8446282E-1,4.6385095E-1,9.612732E-1,1.5786908E0,3.844471E0,5.7302237E0,-9.742279E-2,-6.914352E-2,6.213315E-3,8.597094E-2,1.6969639E-1,2.8713593E-1,4.1915783E-1,5.868126E-1,8.5148287E-1,1.1418865E0,1.4245579E0,1.872892E0,3.6424105E0,7.3592596E0,4.969605E0,8.187851E0,-9.89784E-2,-9.282775E-2,-7.750802E-2,-5.0651547E-2,-1.28865065E-2,1.1634357E-2,6.7976296E-2,9.485908E-2,1.4181656E-1,1.8759754E-1,1.9141657E-2,2.3793543E-2,3.724804E-1,4.457014E-1,4.0110156E-2,4.780828E-2,5.3822104E-2,8.837371E-1,7.776354E-2,8.9316286E-2,9.89109E-2,1.4774443E0,1.2357222E-1,1.474043E-1,3.8880966E0,2.2252736E0,6.2284E-1,1.3418134E-1,4.667047E0,8.103859E-1,8.710222E0,3.279918E-2,-7.480372E-3,-7.3385984E-3,-7.0893853E-3,-6.729405E-3,-6.098975E-3,-5.4627247E-3,-4.3058237E-3,-2.8497665E-3,-1.8440377E-3,-7.748805E-4,4.1285652E-4,1.4827291E-3,4.3335645E-3,5.8173114E-3,6.8527437E-3,7.759054E-3,8.7704575E-3,1.10152345E-2,1.2869251E-2,1.4896528E-2,2.5353642E-2,2.87668E-2,3.188469E-2,3.4537308E-2,6.455766E-2,7.104451E-2,1.0271079E-1,1.1862963E-1,3.4264195E-1,2.3645216E-1,8.207835E-2,2.2654141E-1,3.135262E-1,5.25289E-1,6.848318E-1,1.2146042E-1],"categories":[],"categories_nodes":[],"categories_segments":[],"categories_sizes":[],"default_left":[0,0,0,0,0,0,0,0,0,0,0,0,0,0,0,0,0,0,0,0,0,0,0,0,0,0,0,0,0,0,0,0,0,0,0,0,0,0,0,0,0,0,0,0,0,0,0,0,0,0,0,0,0,0,0,0,0,0,0,0,0,0,0,0,0,0,0,0,0,0,0,0,0,0,0,0,0,0,0,0,0,0,0,0,0,0,0,0,0,0,0,0,0,0,0,0,0,0,0],"id":13,"left_children":[1,3,5,7,9,11,13,15,17,19,21,23,25,27,29,31,33,35,37,39,41,43,45,47,49,51,53,55,57,59,61,63,65,67,69,71,73,75,77,79,81,-1,-1,83,85,-1,-1,-1,87,-1,-1,-1,89,-1,-1,91,93,-1,-1,95,-1,97,-1,-1,-1,-1,-1,-1,-1,-1,-1,-1,-1,-1,-1,-1,-1,-1,-1,-1,-1,-1,-1,-1,-1,-1,-1,-1,-1,-1,-1,-1,-1,-1,-1,-1,-1,-1,-1],"loss_changes":[4.4370615E3,8.2568866E2,1.9743672E3,4.4981934E1,1.0614545E2,1.4487622E2,1.3104712E2,2.1138306E0,4.0282774E0,4.2130737E0,1.4256775E1,2.6927856E1,2.1229492E1,5.131653E1,9.016162E1,3.2806396E-1,4.311781E-1,1.6384815E-1,1.626072E-1,1.2011337E0,2.572918E-1,2.2363892E0,1.5050812E0,3.1608276E0,1.487793E0,8.911133E-3,4.706421E-1,2.825415E1,1.1469177E1,4.8444946E1,5.6920715E1,2.0477295E-2,5.443573E-2,2.8532982E-2,7.300687E-2,1.0208335E-2,6.1326772E-2,3.0025005E-2,1.169014E-2,1.0425949E-1,2.2970963E-1,0E0,0E0,1.407547E-1,1.789093E-1,0E0,0E0,0E0,2.1179199E-1,0E0,0E0,0E0,3.671875E-1,0E0,0E0,3.0133423E1,1.2883163E1,0E0,0E0,3.3273926E1,0E0,2.6992188E1,0E0,0E0,0E0,0E0,0E0,0E0,0E0,0E0,0E0,0E0,0E0,0E0,0E0,0E0,0E0,0E0,0E0,0E0,0E0,0E0,0E0,0E0,0E0,0E0,0E0,0E0,0E0,0E0,0E0,0E0,0E0,0E0,0E0,0E0,0E0,0E0,0E0],"parents":[2147483647,0,0,1,1,2,2,3,3,4,4,5,5,6,6,7,7,8,8,9,9,10,10,11,11,12,12,13,13,14,14,15,15,16,16,17,17,18,18,19,19,20,20,21,21,22,22,23,23,24,24,25,25,26,26,27,27,28,28,29,29,30,30,31,31,32,32,33,33,34,34,35,35,36,36,37,37,38,38,39,39,40,40,43,43,44,44,48,48,52,52,55,55,56,56,59,59,61,61],"right_children":[2,4,6,8,10,12,14,16,18,20,22,24,26,28,30,32,34,36,38,40,42,44,46,48,50,52,54,56,58,60,62,64,66,68,70,72,74,76,78,80,82,-1,-1,84,86,-1,-1,-1,88,-1,-1,-1,90,-1,-1,92,94,-1,-1,96,-1,98,-1,-1,-1,-1,-1,-1,-1,-1,-1,-1,-1,-1,-1,-1,-1,-1,-1,-1,-1,-1,-1,-1,-1,-1,-1,-1,-1,-1,-1,-1,-1,-1,-1,-1,-1,-1,-1],"split_conditions":[1.2150411E3,6.282255E2,2.1191328E3,3.6998648E2,9.0356165E2,1.6092565E3,2.0264E3,1.6417622E2,5.134299E2,7.844701E2,1.056373E3,1.4186962E3,1.8123983E3,4E-1,1.146E2,7.679815E1,2.439032E2,4.315306E2,5.9105225E2,6.9945044E2,8.5838745E2,9.773255E2,1.1377512E3,1.2705616E3,1.5071431E3,1.6813911E3,1.4594E3,1E-1,6.42E1,1.5994E4,1.9084103E3,2.5395538E1,1.1812164E2,2.0425867E2,1.025E3,1.294E3,4.5507117E2,5.688384E2,6.105304E2,6.6165265E2,7.333182E2,1.9141657E-2,2.3793543E-2,9.208324E2,1.01343445E3,4.0110156E-2,4.780828E-2,5.3822104E-2,1.3736934E3,7.776354E-2,8.9316286E-2,9.89109E-2,2.5E-1,1.2357222E-1,1.474043E-1,2.9529034E2,7.86E1,6.2284E-1,1.3418134E-1,1E-1,8.103859E-1,1E-1,3.279918E-2,-7.480372E-3,-7.3385984E-3,-7.0893853E-3,-6.729405E-3,-6.098975E-3,-5.4627247E-3,-4.3058237E-3,-2.8497665E-3,-1.8440377E-3,-7.748805E-4,4.1285652E-4,1.4827291E-3,4.3335645E-3,5.8173114E-3,6.8527437E-3,7.759054E-3,8.7704575E-3,1.10152345E-2,1.2869251E-2,1.4896528E-2,2.5353642E-2,2.87668E-2,3.188469E-2,3.4537308E-2,6.455766E-2,7.104451E-2,1.0271079E-1,1.1862963E-1,3.4264195E-1,2.3645216E-1,8.207835E-2,2.2654141E-1,3.135262E-1,5.25289E-1,6.848318E-1,1.2146042E-1],"split_indices":[34,34,34,34,34,34,33,34,34,34,34,34,34,15,2,34,34,34,34,34,34,34,34,34,34,34,33,15,2,32,3,34,34,34,32,32,34,34,34,34,34,0,0,34,34,0,0,0,34,0,0,0,16,0,0,3,2,0,0,15,0,15,0,0,0,0,0,0,0,0,0,0,0,0,0,0,0,0,0,0,0,0,0,0,0,0,0,0,0,0,0,0,0,0,0,0,0,0,0],"split_type":[0,0,0,0,0,0,0,0,0,0,0,0,0,0,0,0,0,0,0,0,0,0,0,0,0,0,0,0,0,0,0,0,0,0,0,0,0,0,0,0,0,0,0,0,0,0,0,0,0,0,0,0,0,0,0,0,0,0,0,0,0,0,0,0,0,0,0,0,0,0,0,0,0,0,0,0,0,0,0,0,0,0,0,0,0,0,0,0,0,0,0,0,0,0,0,0,0,0,0],"sum_hessian":[6.0182E4,5.8072E4,2.11E3,5.2624E4,5.448E3,1.932E3,1.78E2,4.9988E4,2.636E3,2.81E3,2.638E3,1.406E3,5.26E2,1.09E2,6.9E1,4.7176E4,2.812E3,1.58E3,1.056E3,2.459E3,3.51E2,1.938E3,7E2,8.78E2,5.28E2,3.49E2,1.77E2,1.05E2,4E0,5.5E1,1.4E1,3.5229E4,1.1947E4,1.934E3,8.78E2,3.49E2,1.231E3,3.52E2,7.04E2,9.65E2,1.494E3,1.75E2,1.76E2,7.08E2,1.23E3,3.51E2,3.49E2,1.75E2,7.03E2,1.75E2,3.53E2,1.25E2,2.24E2,5.7E1,1.2E2,8.8E1,1.7E1,3E0,1E0,5.4E1,1E0,1.3E1,1E0,2.1015E4,1.4214E4,7.703E3,4.244E3,1.056E3,8.78E2,5.7E2,3.08E2,6.1E1,2.88E2,7.03E2,5.28E2,1.74E2,1.78E2,5.09E2,1.95E2,1.67E2,7.98E2,6.16E2,8.78E2,1.8E2,5.28E2,5.27E2,7.03E2,5.27E2,1.76E2,1.17E2,1.07E2,4.3E1,4.5E1,8E0,9E0,4.7E1,7E0,1.2E1,1E0],"tree_param":{"num_deleted":"0","num_feature":"38","num_nodes":"99","size_leaf_vector":"1"}},{"base_weights":[1.0295603E-3,-4.694042E-2,1.3206693E0,-8.2436115E-2,2.958762E-1,1.0458319E0,4.2812285E0,-8.8646844E-2,3.533048E-2,1.7066029E-1,4.291411E-1,8.526576E-1,1.3833603E0,3.857271E0,6.2583094E0,-9.011669E-2,-6.396441E-2,5.7468587E-3,7.954655E-2,1.5698849E-1,2.6572272E-1,3.9476916E-1,5.664665E-1,7.8783715E-1,7.5840116E-2,1.2618594E0,1.7339475E0,5.0422444E0,3.5439801E0,5.219602E0,1.0407925E1,-9.157042E-2,-8.590655E-2,-7.170089E-2,-4.6860818E-2,-4.842124E-3,1.4230796E-2,6.290683E-2,8.776537E-2,1.3120079E-1,1.735463E-1,1.7714191E-2,2.2019109E-2,3.520121E-1,4.2479822E-1,4.037509E-2,4.6218973E-2,7.1151435E-1,6.2774196E-2,8.83958E-2,1.3676196E0,1.14464104E-1,1.3644035E-1,1.550546E-1,5.894815E0,3.3098183E0,5.414646E0,4.59639E0,7.7999645E-1,9.663962E-1,3.345944E-1,-6.9188606E-3,-6.789208E-3,-6.579722E-3,-6.2532346E-3,-5.596471E-3,-4.9868464E-3,-4.0433686E-3,-2.718892E-3,-8.945626E-4,1.6178239E-4,8.3082827E-4,2.0058278E-3,4.010405E-3,5.3834505E-3,6.339796E-3,7.1800943E-3,8.11659E-3,1.0190126E-2,1.1905623E-2,1.3780558E-2,2.447203E-2,2.7657304E-2,3.0950688E-2,3.398034E-2,4.980837E-2,5.661558E-2,9.507276E-2,1.09814785E-1,3.6005493E-2,4.5973498E-1,2.28E-1,3.6254913E-1,2.3818359E-1,6.8238235E-1,2.0601289E-1,3.7769166E-1],"categories":[],"categories_nodes":[],"categories_segments":[],"categories_sizes":[],"default_left":[0,0,0,0,0,0,0,0,0,0,0,0,0,0,0,0,0,0,0,0,0,0,0,0,0,0,0,0,0,0,0,0,0,0,0,0,0,0,0,0,0,0,0,0,0,0,0,0,0,0,0,0,0,0,0,0,0,0,0,0,0,0,0,0,0,0,0,0,0,0,0,0,0,0,0,0,0,0,0,0,0,0,0,0,0,0,0,0,0,0,0,0,0,0,0,0,0],"id":14,"left_children":[1,3,5,7,9,11,13,15,17,19,21,23,25,27,29,31,33,35,37,39,41,43,45,47,-1,49,51,53,55,57,59,61,63,65,67,69,71,73,75,77,79,-1,-1,81,83,-1,-1,85,-1,-1,87,-1,-1,-1,89,91,93,95,-1,-1,-1,-1,-1,-1,-1,-1,-1,-1,-1,-1,-1,-1,-1,-1,-1,-1,-1,-1,-1,-1,-1,-1,-1,-1,-1,-1,-1,-1,-1,-1,-1,-1,-1,-1,-1,-1,-1],"loss_changes":[3.809832E3,7.066866E2,1.7131855E3,3.8493927E1,9.085358E1,1.2485547E2,1.2589746E2,1.8078308E0,3.4489267E0,3.6116714E0,1.2232788E1,1.186438E1,2.7714844E1,3.781665E1,7.498181E1,2.808838E-1,3.688612E-1,1.4210004E-1,1.3903332E-1,1.0276184E0,2.2033882E-1,2.5647888E0,4.0496826E-1,2.7019653E0,0E0,3.010437E0,3.7646484E-1,6.136487E1,3.5519287E1,3.6137695E1,1.6175537E1,1.6662598E-2,4.8614502E-2,2.4459839E-2,6.3795686E-2,3.4938585E-2,3.4346446E-2,2.5711417E-2,1.0081768E-2,8.890724E-2,1.9646835E-1,0E0,0E0,2.579422E-1,2.3698425E-1,0E0,0E0,2.2012329E-1,0E0,0E0,3.1652832E-1,0E0,0E0,0E0,2.504956E1,3.0953247E1,7.007535E1,6.4890747E0,0E0,0E0,0E0,0E0,0E0,0E0,0E0,0E0,0E0,0E0,0E0,0E0,0E0,0E0,0E0,0E0,0E0,0E0,0E0,0E0,0E0,0E0,0E0,0E0,0E0,0E0,0E0,0E0,0E0,0E0,0E0,0E0,0E0,0E0,0E0,0E0,0E0,0E0,0E0],"parents":[2147483647,0,0,1,1,2,2,3,3,4,4,5,5,6,6,7,7,8,8,9,9,10,10,11,11,12,12,13,13,14,14,15,15,16,16,17,17,18,18,19,19,20,20,21,21,22,22,23,23,25,25,26,26,27,27,28,28,29,29,30,30,31,31,32,32,33,33,34,34,35,35,36,36,37,37,38,38,39,39,40,40,43,43,44,44,47,47,50,50,54,54,55,55,56,56,57,57],"right_children":[2,4,6,8,10,12,14,16,18,20,22,24,26,28,30,32,34,36,38,40,42,44,46,48,-1,50,52,54,56,58,60,62,64,66,68,70,72,74,76,78,80,-1,-1,82,84,-1,-1,86,-1,-1,88,-1,-1,-1,90,92,94,96,-1,-1,-1,-1,-1,-1,-1,-1,-1,-1,-1,-1,-1,-1,-1,-1,-1,-1,-1,-1,-1,-1,-1,-1,-1,-1,-1,-1,-1,-1,-1,-1,-1,-1,-1,-1,-1,-1,-1],"split_conditions":[1.2150411E3,6.282255E2,2.1191328E3,3.6998648E2,9.0356165E2,1.5705964E3,2.6826E3,1.6417622E2,5.134299E2,7.844701E2,1.0846655E3,1.4186962E3,1.8123983E3,6.666667E-1,9.78E1,7.59573E1,2.439032E2,4.4988474E2,5.9105225E2,6.9945044E2,8.5838745E2,9.901018E2,1.1756333E3,1.352408E3,7.5840116E-2,1.6813911E3,1.4594E3,1.1394E4,1.656E2,1.5994E4,2E-1,2.7373142E1,1.1654513E2,2.1224E2,3.0163657E2,4.315306E2,4.7151712E2,5.688384E2,6.105304E2,6.6165265E2,7.333182E2,1.7714191E-2,2.2019109E-2,9.4927673E2,1.0296376E3,4.037509E-2,4.6218973E-2,1.2705616E3,6.2774196E-2,8.83958E-2,2.5E-1,1.14464104E-1,1.3644035E-1,1.550546E-1,4.975E3,2.2222222E-1,1.494E4,9.665966E-4,7.7999645E-1,9.663962E-1,3.345944E-1,-6.9188606E-3,-6.789208E-3,-6.579722E-3,-6.2532346E-3,-5.596471E-3,-4.9868464E-3,-4.0433686E-3,-2.718892E-3,-8.945626E-4,1.6178239E-4,8.3082827E-4,2.0058278E-3,4.010405E-3,5.3834505E-3,6.339796E-3,7.1800943E-3,8.11659E-3,1.0190126E-2,1.1905623E-2,1.3780558E-2,2.447203E-2,2.7657304E-2,3.0950688E-2,3.398034E-2,4.980837E-2,5.661558E-2,9.507276E-2,1.09814785E-1,3.6005493E-2,4.5973498E-1,2.28E-1,3.6254913E-1,2.3818359E-1,6.8238235E-1,2.0601289E-1,3.7769166E-1],"split_indices":[34,34,34,34,34,34,33,34,34,34,34,34,34,16,2,34,34,34,34,34,34,34,34,34,0,34,33,30,2,32,7,34,34,34,34,34,34,34,34,34,34,0,0,34,34,0,0,34,0,0,16,0,0,0,32,7,30,36,0,0,0,0,0,0,0,0,0,0,0,0,0,0,0,0,0,0,0,0,0,0,0,0,0,0,0,0,0,0,0,0,0,0,0,0,0,0,0],"split_type":[0,0,0,0,0,0,0,0,0,0,0,0,0,0,0,0,0,0,0,0,0,0,0,0,0,0,0,0,0,0,0,0,0,0,0,0,0,0,0,0,0,0,0,0,0,0,0,0,0,0,0,0,0,0,0,0,0,0,0,0,0,0,0,0,0,0,0,0,0,0,0,0,0,0,0,0,0,0,0,0,0,0,0,0,0,0,0,0,0,0,0,0,0,0,0,0,0],"sum_hessian":[6.0182E4,5.8072E4,2.11E3,5.2624E4,5.448E3,1.932E3,1.78E2,4.9988E4,2.636E3,2.81E3,2.638E3,1.231E3,7.01E2,1.49E2,2.9E1,4.7176E4,2.812E3,1.58E3,1.056E3,2.459E3,3.51E2,2.113E3,5.25E2,8.78E2,3.53E2,5.24E2,1.77E2,2.8E1,1.21E2,2.5E1,4E0,3.5052E4,1.2124E4,1.934E3,8.78E2,7.03E2,8.77E2,3.52E2,7.04E2,9.65E2,1.494E3,1.75E2,1.76E2,8.77E2,1.236E3,3.43E2,1.82E2,3.5E2,5.28E2,3E2,2.24E2,5.7E1,1.2E2,7E0,2.1E1,1.1E2,1.1E1,2.4E1,1E0,2E0,2E0,2.119E4,1.3862E4,7.027E3,5.097E3,1.231E3,7.03E2,5.25E2,3.53E2,3.49E2,3.54E2,7.02E2,1.75E2,1.74E2,1.78E2,5.09E2,1.95E2,1.67E2,7.98E2,6.16E2,8.78E2,3.54E2,5.23E2,8.76E2,3.6E2,1.75E2,1.75E2,1.17E2,1.07E2,1E0,2E1,9.6E1,1.4E1,8E0,3E0,6E0,1.8E1],"tree_param":{"num_deleted":"0","num_feature":"38","num_nodes":"97","size_leaf_vector":"1"}},{"base_weights":[1.0501174E-3,-4.3415263E-2,1.2242794E0,-7.6253764E-2,2.7373824E-1,9.6780276E-1,3.9871008E0,-8.1999205E-2,3.2690186E-2,1.5789056E-1,3.970327E-1,8.2261527E-1,1.3535922E0,3.8734684E0,9.0801233E-1,-8.311659E-2,-5.417697E-2,5.317175E-3,7.360224E-2,1.4161041E-1,2.2688493E-1,3.5863048E-1,5.026887E-1,7.2894186E-1,9.767104E-1,9.162808E-2,1.6053112E0,3.1562026E0,4.6385493E0,-8.420663E-2,-7.653133E-2,-6.0576443E-2,-3.6988683E-2,-4.4800057E-3,1.3166716E-2,5.8215436E-2,8.120215E-2,1.1937399E-1,1.5542892E-1,2.0416074E-1,2.0377006E-2,3.1859276E-1,3.8139904E-1,3.4329355E-2,4.098551E-2,4.609397E-2,7.564953E-1,6.630873E-2,7.649901E-2,9.086629E-2,1.22952245E-1,2.9417348E0,5.43212E0,5.160894E0,3.344678E0,-6.365169E-3,-6.1403792E-3,-5.862029E-3,-5.3835995E-3,-4.8060454E-3,-4.0979492E-3,-3.1180508E-3,-2.076508E-3,-1.2121059E-3,-4.6086407E-5,7.686047E-4,1.8562456E-3,3.711343E-3,4.981948E-3,5.724023E-3,6.439047E-3,7.5114686E-3,9.281546E-3,1.0960146E-2,1.2347458E-2,1.4194723E-2,1.6393175E-2,2.1637358E-2,2.4621567E-2,2.7260024E-2,2.9572979E-2,5.5178944E-2,6.106481E-2,2.6995555E-1,1.664018E-1,5.043406E-1,1.1005326E-1,2.5371933E-1,4.7373253E-1,4.563281E-2,3.0731156E-1],"categories":[],"categories_nodes":[],"categories_segments":[],"categories_sizes":[],"default_left":[0,0,0,0,0,0,0,0,0,0,0,0,0,0,0,0,0,0,0,0,0,0,0,0,0,0,0,0,0,0,0,0,0,0,0,0,0,0,0,0,0,0,0,0,0,0,0,0,0,0,0,0,0,0,0,0,0,0,0,0,0,0,0,0,0,0,0,0,0,0,0,0,0,0,0,0,0,0,0,0,0,0,0,0,0,0,0,0,0,0,0],"id":15,"left_children":[1,3,5,7,9,11,13,15,17,19,21,23,25,27,-1,29,31,33,35,37,39,41,43,45,47,-1,49,51,53,55,57,59,61,63,65,67,69,71,73,75,-1,77,79,-1,-1,-1,81,-1,-1,-1,-1,83,85,87,89,-1,-1,-1,-1,-1,-1,-1,-1,-1,-1,-1,-1,-1,-1,-1,-1,-1,-1,-1,-1,-1,-1,-1,-1,-1,-1,-1,-1,-1,-1,-1,-1,-1,-1,-1,-1],"loss_changes":[3.273488E3,6.0484216E2,1.4919939E3,3.294229E1,7.7767456E1,1.0715723E2,1.18261475E2,1.5495911E0,2.9527483E0,3.12529E0,1.0527252E1,1.9597656E1,1.5533997E1,8.304004E1,0E0,3.3850098E-1,2.1038151E-1,1.21643215E-1,1.1887646E-1,6.811104E-1,4.8929024E-1,1.6460876E0,1.1299438E0,2.304718E0,1.217926E0,0E0,4.0048218E-1,3.0390747E1,3.950952E1,5.682373E-2,4.7286987E-2,2.5770664E-2,2.132672E-2,3.1778984E-2,2.9429287E-2,2.2017717E-2,9.458065E-3,6.1437607E-2,9.577942E-2,3.5726547E-2,0E0,1.121521E-1,1.4160156E-1,0E0,0E0,0E0,2.449646E-1,0E0,0E0,0E0,0E0,3.4335815E1,2.6001404E1,9.779382E1,5.3123383E1,0E0,0E0,0E0,0E0,0E0,0E0,0E0,0E0,0E0,0E0,0E0,0E0,0E0,0E0,0E0,0E0,0E0,0E0,0E0,0E0,0E0,0E0,0E0,0E0,0E0,0E0,0E0,0E0,0E0,0E0,0E0,0E0,0E0,0E0,0E0,0E0],"parents":[2147483647,0,0,1,1,2,2,3,3,4,4,5,5,6,6,7,7,8,8,9,9,10,10,11,11,12,12,13,13,15,15,16,16,17,17,18,18,19,19,20,20,21,21,22,22,23,23,24,24,26,26,27,27,28,28,29,29,30,30,31,31,32,32,33,33,34,34,35,35,36,36,37,37,38,38,39,39,41,41,42,42,46,46,51,51,52,52,53,53,54,54],"right_children":[2,4,6,8,10,12,14,16,18,20,22,24,26,28,-1,30,32,34,36,38,40,42,44,46,48,-1,50,52,54,56,58,60,62,64,66,68,70,72,74,76,-1,78,80,-1,-1,-1,82,-1,-1,-1,-1,84,86,88,90,-1,-1,-1,-1,-1,-1,-1,-1,-1,-1,-1,-1,-1,-1,-1,-1,-1,-1,-1,-1,-1,-1,-1,-1,-1,-1,-1,-1,-1,-1,-1,-1,-1,-1,-1,-1],"split_conditions":[1.2150411E3,6.282255E2,2.1191328E3,3.6998648E2,9.0356165E2,1.6092565E3,5.326153E3,1.9600592E2,5.134299E2,7.541537E2,1.056373E3,1.4186962E3,1.8123983E3,1.8172E4,9.0801233E-1,1.09274574E2,2.8930548E2,4.4988474E2,5.9105225E2,6.9424207E2,8.5838745E2,9.773255E2,1.1377512E3,1.2705616E3,1.5071431E3,9.162808E-2,1.1884E3,1.1111111E-1,8.007606E2,6.4684616E1,1.4147827E2,2.2961322E2,3.2970905E2,4.0880783E2,4.7151712E2,5.688384E2,6.036108E2,6.6165265E2,7.333182E2,7.844701E2,2.0377006E-2,9.208324E2,1.01343445E3,3.4329355E-2,4.098551E-2,4.609397E-2,1.3736934E3,6.630873E-2,7.649901E-2,9.086629E-2,1.22952245E-1,2.9529034E2,6.42E1,3.118094E2,1.1560608E3,-6.365169E-3,-6.1403792E-3,-5.862029E-3,-5.3835995E-3,-4.8060454E-3,-4.0979492E-3,-3.1180508E-3,-2.076508E-3,-1.2121059E-3,-4.6086407E-5,7.686047E-4,1.8562456E-3,3.711343E-3,4.981948E-3,5.724023E-3,6.439047E-3,7.5114686E-3,9.281546E-3,1.0960146E-2,1.2347458E-2,1.4194723E-2,1.6393175E-2,2.1637358E-2,2.4621567E-2,2.7260024E-2,2.9572979E-2,5.5178944E-2,6.106481E-2,2.6995555E-1,1.664018E-1,5.043406E-1,1.1005326E-1,2.5371933E-1,4.7373253E-1,4.563281E-2,3.0731156E-1],"split_indices":[34,34,34,34,34,34,34,34,34,34,34,34,34,30,0,34,34,34,34,34,34,34,34,34,34,0,33,4,3,34,34,34,34,34,34,34,34,34,34,34,0,34,34,0,0,0,34,0,0,0,0,3,2,3,3,0,0,0,0,0,0,0,0,0,0,0,0,0,0,0,0,0,0,0,0,0,0,0,0,0,0,0,0,0,0,0,0,0,0,0,0],"split_type":[0,0,0,0,0,0,0,0,0,0,0,0,0,0,0,0,0,0,0,0,0,0,0,0,0,0,0,0,0,0,0,0,0,0,0,0,0,0,0,0,0,0,0,0,0,0,0,0,0,0,0,0,0,0,0,0,0,0,0,0,0,0,0,0,0,0,0,0,0,0,0,0,0,0,0,0,0,0,0,0,0,0,0,0,0,0,0,0,0,0,0],"sum_hessian":[6.0182E4,5.8072E4,2.11E3,5.2624E4,5.448E3,1.932E3,1.78E2,4.9988E4,2.636E3,2.81E3,2.638E3,1.406E3,5.26E2,1.77E2,1E0,4.8056E4,1.932E3,1.58E3,1.056E3,2.276E3,5.34E2,1.938E3,7E2,8.78E2,5.28E2,3.49E2,1.77E2,9.4E1,8.3E1,4.1221E4,6.835E3,1.406E3,5.26E2,7.03E2,8.77E2,3.52E2,7.04E2,8.76E2,1.4E3,3.58E2,1.76E2,7.08E2,1.23E3,3.51E2,3.49E2,1.75E2,7.03E2,1.75E2,3.53E2,1.7E1,1.6E2,8.8E1,6E0,5.7E1,2.6E1,3.2085E4,9.136E3,5.078E3,1.757E3,8.78E2,5.28E2,3.5E2,1.76E2,1.74E2,5.29E2,7.02E2,1.75E2,1.74E2,1.78E2,3.52E2,3.52E2,1.67E2,7.09E2,7.05E2,6.95E2,1.83E2,1.75E2,1.8E2,5.28E2,5.27E2,7.03E2,5.27E2,1.76E2,4.4E1,4.4E1,4E0,2E0,2.4E1,3.3E1,6E0,2E1],"tree_param":{"num_deleted":"0","num_feature":"38","num_nodes":"91","size_leaf_vector":"1"}},{"base_weights":[1.0362192E-3,-4.0154748E-2,1.1341873E0,-7.053503E-2,2.5325733E-1,8.9553344E-1,3.7050467E0,-7.5850025E-2,3.0246848E-2,1.4608116E-1,3.6732286E-1,7.295613E-1,1.1855364E0,3.594931E0,8.7396187E-1,-7.715147E-2,-5.5359855E-2,4.919251E-3,6.81018E-2,1.3100724E-1,2.0996383E-1,3.3775312E-1,4.8546574E-1,6.536005E-1,8.2894045E-1,1.0813681E0,1.486114E0,2.9305477E0,4.3035197E0,-7.838136E-2,-7.367415E-2,-6.170618E-2,-4.0055588E-2,-1.0409862E-2,9.2701195E-3,5.3873904E-2,7.512924E-2,1.1044009E-1,1.437884E-1,1.8893386E-1,1.8857367E-2,3.069035E-1,3.683705E-1,3.45462E-2,3.9714374E-2,4.2656567E-2,5.1048357E-2,5.9097867E-2,6.786555E-2,7.559855E-2,1.1747379E0,9.7670235E-2,1.1714669E-1,2.7865925E0,4.812231E-1,4.1198735E0,7.329815E-1,-5.923613E-3,-5.810513E-3,-5.6386623E-3,-5.3738346E-3,-4.8427684E-3,-4.3213856E-3,-3.4113638E-3,-2.2419936E-3,-1.5652083E-3,-6.097438E-4,3.7655755E-4,1.2952078E-3,3.434583E-3,4.610389E-3,5.4202746E-3,6.163871E-3,6.951462E-3,8.58641E-3,9.955806E-3,1.1281297E-2,1.3135904E-2,1.5170671E-2,2.1412073E-2,2.4544563E-2,2.7099004E-2,3.0117745E-2,8.118887E-2,9.484646E-2,1.925567E-1,3.8343614E-1,2.6780245E-1,4.0479413E-1],"categories":[],"categories_nodes":[],"categories_segments":[],"categories_sizes":[],"default_left":[0,0,0,0,0,0,0,0,0,0,0,0,0,0,0,0,0,0,0,0,0,0,0,0,0,0,0,0,0,0,0,0,0,0,0,0,0,0,0,0,0,0,0,0,0,0,0,0,0,0,0,0,0,0,0,0,0,0,0,0,0,0,0,0,0,0,0,0,0,0,0,0,0,0,0,0,0,0,0,0,0,0,0,0,0,0,0,0,0],"id":16,"left_children":[1,3,5,7,9,11,13,15,17,19,21,23,25,27,-1,29,31,33,35,37,39,41,43,45,47,49,51,53,55,57,59,61,63,65,67,69,71,73,75,77,-1,79,81,-1,-1,-1,-1,-1,-1,-1,83,-1,-1,85,-1,87,-1,-1,-1,-1,-1,-1,-1,-1,-1,-1,-1,-1,-1,-1,-1,-1,-1,-1,-1,-1,-1,-1,-1,-1,-1,-1,-1,-1,-1,-1,-1,-1,-1],"loss_changes":[2.8091226E3,5.176772E2,1.2918772E3,2.8191132E1,6.656094E1,9.217493E1,1.1476514E2,1.3287659E0,2.5279543E0,2.6793747E0,9.055267E0,8.758423E0,2.0372986E1,7.118628E1,0E0,1.9525146E-1,2.8783798E-1,1.05541214E-1,1.0163736E-1,5.8267975E-1,4.1905212E-1,1.8836823E0,3.319931E-1,1.2259827E0,9.35791E-1,2.41333E0,4.477539E-1,2.979071E1,4.411133E1,1.2802124E-2,3.212738E-2,2.0993233E-2,4.7138214E-2,8.176878E-3,4.1791335E-2,1.8854618E-2,8.281469E-3,5.2375793E-2,8.2603455E-2,3.0614853E-2,0E0,3.681183E-1,1.020813E-1,0E0,0E0,0E0,0E0,0E0,0E0,0E0,4.960327E-1,0E0,0E0,3.4282288E1,0E0,3.8953003E1,0E0,0E0,0E0,0E0,0E0,0E0,0E0,0E0,0E0,0E0,0E0,0E0,0E0,0E0,0E0,0E0,0E0,0E0,0E0,0E0,0E0,0E0,0E0,0E0,0E0,0E0,0E0,0E0,0E0,0E0,0E0,0E0,0E0],"parents":[2147483647,0,0,1,1,2,2,3,3,4,4,5,5,6,6,7,7,8,8,9,9,10,10,11,11,12,12,13,13,15,15,16,16,17,17,18,18,19,19,20,20,21,21,22,22,23,23,24,24,25,25,26,26,27,27,28,28,29,29,30,30,31,31,32,32,33,33,34,34,35,35,36,36,37,37,38,38,39,39,41,41,42,42,50,50,53,53,55,55],"right_children":[2,4,6,8,10,12,14,16,18,20,22,24,26,28,-1,30,32,34,36,38,40,42,44,46,48,50,52,54,56,58,60,62,64,66,68,70,72,74,76,78,-1,80,82,-1,-1,-1,-1,-1,-1,-1,84,-1,-1,86,-1,88,-1,-1,-1,-1,-1,-1,-1,-1,-1,-1,-1,-1,-1,-1,-1,-1,-1,-1,-1,-1,-1,-1,-1,-1,-1,-1,-1,-1,-1,-1,-1,-1,-1],"split_conditions":[1.2150411E3,6.282255E2,2.1191328E3,3.6998648E2,9.0356165E2,1.5705964E3,5.326153E3,1.606501E2,5.134299E2,7.541537E2,1.0846655E3,1.3736934E3,1.8123983E3,1.8172E4,8.7396187E-1,7.442819E1,2.439032E2,4.315306E2,5.9105225E2,6.9424207E2,8.5838745E2,1.0043378E3,1.1756333E3,1.2705616E3,1.5071431E3,1.6813911E3,1.4594E3,3E-1,1.5994E4,2.2818365E1,1.144428E2,2.0425867E2,1.025E3,1.294E3,4.578978E2,5.688384E2,6.105304E2,6.6165265E2,7.247038E2,7.844701E2,1.8857367E-2,9.6382654E2,1.056373E3,3.45462E-2,3.9714374E-2,4.2656567E-2,5.1048357E-2,5.9097867E-2,6.786555E-2,7.559855E-2,2.5E-1,9.7670235E-2,1.1714669E-1,1.1111111E-1,4.812231E-1,1.144E2,7.329815E-1,-5.923613E-3,-5.810513E-3,-5.6386623E-3,-5.3738346E-3,-4.8427684E-3,-4.3213856E-3,-3.4113638E-3,-2.2419936E-3,-1.5652083E-3,-6.097438E-4,3.7655755E-4,1.2952078E-3,3.434583E-3,4.610389E-3,5.4202746E-3,6.163871E-3,6.951462E-3,8.58641E-3,9.955806E-3,1.1281297E-2,1.3135904E-2,1.5170671E-2,2.1412073E-2,2.4544563E-2,2.7099004E-2,3.0117745E-2,8.118887E-2,9.484646E-2,1.925567E-1,3.8343614E-1,2.6780245E-1,4.0479413E-1],"split_indices":[34,34,34,34,34,34,34,34,34,34,34,34,34,30,0,34,34,34,34,34,34,34,34,34,34,34,33,17,32,34,34,34,32,32,34,34,34,34,34,34,0,34,34,0,0,0,0,0,0,0,16,0,0,4,0,2,0,0,0,0,0,0,0,0,0,0,0,0,0,0,0,0,0,0,0,0,0,0,0,0,0,0,0,0,0,0,0,0,0],"split_type":[0,0,0,0,0,0,0,0,0,0,0,0,0,0,0,0,0,0,0,0,0,0,0,0,0,0,0,0,0,0,0,0,0,0,0,0,0,0,0,0,0,0,0,0,0,0,0,0,0,0,0,0,0,0,0,0,0,0,0,0,0,0,0,0,0,0,0,0,0,0,0,0,0,0,0,0,0,0,0,0,0,0,0,0,0,0,0,0,0],"sum_hessian":[6.0182E4,5.8072E4,2.11E3,5.2624E4,5.448E3,1.932E3,1.78E2,4.9988E4,2.636E3,2.81E3,2.638E3,1.231E3,7.01E2,1.77E2,1E0,4.7E4,2.988E3,1.58E3,1.056E3,2.276E3,5.34E2,2.113E3,5.25E2,7.02E2,5.29E2,5.24E2,1.77E2,9.4E1,8.3E1,3.4704E4,1.2296E4,2.11E3,8.78E2,3.49E2,1.231E3,3.52E2,7.04E2,8.76E2,1.4E3,3.58E2,1.76E2,1.058E3,1.055E3,3.43E2,1.82E2,1.75E2,5.27E2,3.51E2,1.78E2,3E2,2.24E2,5.7E1,1.2E2,9.2E1,2E0,8.2E1,1E0,2.0841E4,1.3863E4,7.024E3,5.272E3,1.232E3,8.78E2,5.7E2,3.08E2,6.1E1,2.88E2,8.05E2,4.26E2,1.74E2,1.78E2,5.09E2,1.95E2,1.67E2,7.09E2,5.33E2,8.67E2,1.83E2,1.75E2,5.23E2,5.35E2,8.8E2,1.75E2,1.17E2,1.07E2,8.6E1,6E0,6E1,2.2E1],"tree_param":{"num_deleted":"0","num_feature":"38","num_nodes":"89","size_leaf_vector":"1"}},{"base_weights":[1.0294006E-3,-3.7138958E-2,1.0510294E0,-6.524525E-2,2.34311E-1,8.287239E-1,3.4458094E0,-7.016202E-2,2.7985588E-2,1.3515495E-1,3.398409E-1,7.0397854E-1,1.1602001E0,3.339147E0,8.4118825E-1,-7.1365595E-2,-5.121282E-2,4.5499885E-3,6.301274E-2,1.21197864E-1,1.9430469E-1,3.1247044E-1,4.4919693E-1,6.2352455E-1,8.3633214E-1,1.0472057E0,1.3758622E0,3.251723E0,7.0549464E-1,-7.232587E-2,-6.7550704E-2,-5.6273684E-2,-3.4645207E-2,-6.211995E-3,9.95221E-3,4.9856152E-2,6.951098E-2,1.021748E-1,1.3301943E-1,1.7484267E-1,1.7451055E-2,2.785303E-1,3.363079E-1,3.1962764E-2,3.675208E-2,5.6124276E-1,4.9775314E-2,5.695668E-2,6.541555E-2,7.253194E-2,1.087415E0,5.6973506E-2,1.3892809E0,2.7218852E0,3.8189867E0,-5.4715406E-3,-5.3421455E-3,-5.1263403E-3,-4.829346E-3,-4.412172E-3,-3.784839E-3,-2.8782715E-3,-1.7519731E-3,-1.0307622E-3,-1.5658421E-4,5.702044E-4,1.6212295E-3,3.1784615E-3,4.2665415E-3,4.8905686E-3,5.5213105E-3,6.4332066E-3,7.943337E-3,9.369454E-3,1.0577848E-2,1.1744469E-2,1.375129E-2,1.9809231E-2,2.242587E-2,2.388465E-2,2.6202507E-2,3.94755E-2,4.447175E-2,7.515131E-2,8.7798834E-2,1.04654185E-1,4.3351725E-2,1.9378437E-1,4.57162E-1,2.642108E-1,4.6164674E-1],"categories":[],"categories_nodes":[],"categories_segments":[],"categories_sizes":[],"default_left":[0,0,0,0,0,0,0,0,0,0,0,0,0,0,0,0,0,0,0,0,0,0,0,0,0,0,0,0,0,0,0,0,0,0,0,0,0,0,0,0,0,0,0,0,0,0,0,0,0,0,0,0,0,0,0,0,0,0,0,0,0,0,0,0,0,0,0,0,0,0,0,0,0,0,0,0,0,0,0,0,0,0,0,0,0,0,0,0,0,0,0],"id":17,"left_children":[1,3,5,7,9,11,13,15,17,19,21,23,25,27,-1,29,31,33,35,37,39,41,43,45,47,49,51,53,-1,55,57,59,61,63,65,67,69,71,73,75,-1,77,79,-1,-1,81,-1,-1,-1,-1,83,-1,85,87,89,-1,-1,-1,-1,-1,-1,-1,-1,-1,-1,-1,-1,-1,-1,-1,-1,-1,-1,-1,-1,-1,-1,-1,-1,-1,-1,-1,-1,-1,-1,-1,-1,-1,-1,-1,-1],"loss_changes":[2.4119797E3,4.4308044E2,1.1209834E3,2.4124985E1,5.6972015E1,7.9112915E1,1.1089819E2,1.1364288E0,2.16438E0,2.2970963E0,7.7585144E0,1.4460815E1,1.1401489E1,6.383069E1,0E0,1.6731262E-1,2.486682E-1,9.197898E-2,8.690262E-2,4.984665E-1,3.5889626E-1,1.6166382E0,2.8570557E-1,1.8253479E0,7.972412E-1,7.5805664E-2,4.1644287E-1,4.2803955E1,0E0,2.06604E-2,1.9542694E-2,3.0993938E-2,2.8668165E-2,1.6402816E-2,2.8692946E-2,1.6145945E-2,7.658243E-3,4.4650078E-2,7.3301315E-2,2.7029037E-2,0E0,1.8010712E-1,1.7703247E-1,0E0,0E0,7.6423645E-2,0E0,0E0,0E0,0E0,4.2633057E-1,0E0,5.0689697E-2,2.8508484E1,3.5748535E1,0E0,0E0,0E0,0E0,0E0,0E0,0E0,0E0,0E0,0E0,0E0,0E0,0E0,0E0,0E0,0E0,0E0,0E0,0E0,0E0,0E0,0E0,0E0,0E0,0E0,0E0,0E0,0E0,0E0,0E0,0E0,0E0,0E0,0E0,0E0,0E0],"parents":[2147483647,0,0,1,1,2,2,3,3,4,4,5,5,6,6,7,7,8,8,9,9,10,10,11,11,12,12,13,13,15,15,16,16,17,17,18,18,19,19,20,20,21,21,22,22,23,23,24,24,25,25,26,26,27,27,29,29,30,30,31,31,32,32,33,33,34,34,35,35,36,36,37,37,38,38,39,39,41,41,42,42,45,45,50,50,52,52,53,53,54,54],"right_children":[2,4,6,8,10,12,14,16,18,20,22,24,26,28,-1,30,32,34,36,38,40,42,44,46,48,50,52,54,-1,56,58,60,62,64,66,68,70,72,74,76,-1,78,80,-1,-1,82,-1,-1,-1,-1,84,-1,86,88,90,-1,-1,-1,-1,-1,-1,-1,-1,-1,-1,-1,-1,-1,-1,-1,-1,-1,-1,-1,-1,-1,-1,-1,-1,-1,-1,-1,-1,-1,-1,-1,-1,-1,-1,-1,-1],"split_conditions":[1.2150411E3,6.282255E2,2.1191328E3,3.6998648E2,9.0356165E2,1.6092565E3,5.326153E3,1.606501E2,5.134299E2,7.541537E2,1.0846655E3,1.4186962E3,1.8123983E3,1.5994E4,8.4118825E-1,8.385444E1,2.7580518E2,4.4538443E2,5.9105225E2,6.9424207E2,8.5838745E2,9.901018E2,1.1756333E3,1.352408E3,1.5071431E3,1.6813911E3,8.178E3,1.8172E4,7.0549464E-1,3.751977E1,1.2756981E2,2.192111E2,3.2970905E2,1.385E3,4.7151712E2,5.688384E2,6.036108E2,6.6165265E2,7.333182E2,1.643E3,1.7451055E-2,9.6382654E2,1.02313837E3,3.1962764E-2,3.675208E-2,1.2705616E3,4.9775314E-2,5.695668E-2,6.541555E-2,7.253194E-2,2.5E-1,5.6973506E-2,3E-1,3E-1,1.354E2,-5.4715406E-3,-5.3421455E-3,-5.1263403E-3,-4.829346E-3,-4.412172E-3,-3.784839E-3,-2.8782715E-3,-1.7519731E-3,-1.0307622E-3,-1.5658421E-4,5.702044E-4,1.6212295E-3,3.1784615E-3,4.2665415E-3,4.8905686E-3,5.5213105E-3,6.4332066E-3,7.943337E-3,9.369454E-3,1.0577848E-2,1.1744469E-2,1.375129E-2,1.9809231E-2,2.242587E-2,2.388465E-2,2.6202507E-2,3.94755E-2,4.447175E-2,7.515131E-2,8.7798834E-2,1.04654185E-1,4.3351725E-2,1.9378437E-1,4.57162E-1,2.642108E-1,4.6164674E-1],"split_indices":[34,34,34,34,34,34,34,34,34,34,34,34,34,32,0,34,34,34,34,34,34,34,34,34,34,34,30,30,0,34,34,34,34,32,34,34,34,34,34,32,0,34,34,0,0,34,0,0,0,0,16,0,4,17,2,0,0,0,0,0,0,0,0,0,0,0,0,0,0,0,0,0,0,0,0,0,0,0,0,0,0,0,0,0,0,0,0,0,0,0,0],"split_type":[0,0,0,0,0,0,0,0,0,0,0,0,0,0,0,0,0,0,0,0,0,0,0,0,0,0,0,0,0,0,0,0,0,0,0,0,0,0,0,0,0,0,0,0,0,0,0,0,0,0,0,0,0,0,0,0,0,0,0,0,0,0,0,0,0,0,0,0,0,0,0,0,0,0,0,0,0,0,0,0,0,0,0,0,0,0,0,0,0,0,0],"sum_hessian":[6.0182E4,5.8072E4,2.11E3,5.2624E4,5.448E3,1.932E3,1.78E2,4.9988E4,2.636E3,2.81E3,2.638E3,1.406E3,5.26E2,1.77E2,1E0,4.7E4,2.988E3,1.58E3,1.056E3,2.276E3,5.34E2,2.113E3,5.25E2,8.78E2,5.28E2,3.49E2,1.77E2,1.76E2,1E0,3.7534E4,9.466E3,2.287E3,7.01E2,5.28E2,1.052E3,3.52E2,7.04E2,8.76E2,1.4E3,3.58E2,1.76E2,8.77E2,1.236E3,3.43E2,1.82E2,3.5E2,5.28E2,1.75E2,3.53E2,1.25E2,2.24E2,5E0,1.72E2,9.4E1,8.2E1,2.383E4,1.3704E4,7.536E3,1.93E3,1.582E3,7.05E2,5.25E2,1.76E2,1.86E2,3.42E2,8.77E2,1.75E2,1.74E2,1.78E2,3.52E2,3.52E2,1.67E2,7.09E2,7.05E2,6.95E2,1.2E2,2.38E2,5.23E2,3.54E2,5.33E2,7.03E2,1.75E2,1.75E2,1.17E2,1.07E2,1.7E2,2E0,9.2E1,2E0,7.5E1,7E0],"tree_param":{"num_deleted":"0","num_feature":"38","num_nodes":"91","size_leaf_vector":"1"}},{"base_weights":[1.0160601E-3,-3.4349687E-2,9.7391707E-1,-6.0352135E-2,2.1678141E-1,7.669299E-1,3.2037058E0,-6.490054E-2,2.589382E-2,1.250458E-1,3.1441385E-1,6.24225E-1,1.0162826E0,3.1004093E0,8.096437E-1,-6.582855E-2,-4.380107E-2,4.209375E-3,5.8303673E-2,1.1212309E-1,1.7981212E-1,2.8380215E-1,3.9863873E-1,5.5889344E-1,7.0970404E-1,9.270279E-1,1.2738242E0,3.0156224E0,6.7903864E-1,-6.678088E-2,-6.135488E-2,-4.8698775E-2,-2.9006258E-2,-2.1809777E-3,1.2234612E-2,4.613803E-2,6.431242E-2,9.452809E-2,1.230572E-1,1.6180049E-1,1.6149623E-2,2.5210026E-1,3.0183044E-1,2.7167873E-2,3.2558117E-2,3.6531664E-2,4.3632735E-2,5.06878E-2,5.7925303E-2,6.483599E-2,1.0065831E0,8.3145075E-2,1.3424947E0,2.1786487E0,3.3190055E0,-5.0515765E-3,-4.909096E-3,-4.694313E-3,-4.3220026E-3,-3.849582E-3,-3.2522746E-3,-2.4487155E-3,